tree
version=v2
num_class=1
num_tree_per_iteration=1
label_index=0
max_feature_idx=55
objective=binary sigmoid:1
feature_names=1 2 3 4 5 6 7 8 9 10 11 12 13 14 15 16 17 18 19 20 21 22 23 24 25 26 27 28 29 30 31 32 33 34 35 36 37 38 39 40 41 42 43 44 45 46 47 48 49 50 51 52 53 54 55 56
feature_infos=none none none none none [0:1] none [0:1] [0:1] [0:1] [0:1] none none none none [0:1] [0:1] [0:1] [0:1] [0:1] [0:1] [0:1] [0:1] [0:1] none [0:1] none [0:1] [0:1] [0:1] [0:1] [0:1] [0:1] none [0:1] [0:1] [0:1] [0:1] [0:1] [0:1] [0:1] none [0:1] [0:1] [0:1] [0:1] none [0:1] [0.69314718055994529:9.8537719602901941] [0.69314718055994529:5.7525726388256322] [0:8.3714735370668318] [0:8.12058871174027] [0:8.3714735370668318] [0.69314718055994529:2.19722457733622] [0.69314718055994529:3.8286413964890951] [0:3.3672958299864737]
tree_sizes=2469 2502 2495 2507 2522 2543 2512 2538 2549 2531 2542 2525 2529 2539 2536 2536 2538 2531 2537 2530 2527 2526 2533 2547 2535 2525 2562 2532 2523 2534

Tree=0
num_leaves=31
num_cat=0
split_feature=49 43 50 53 50 45 50 49 48 48 48 50 17 55 50 49 49 50 19 34 50 17 50 17 50 50 49 25 52 17
split_gain=593.166 636.647 417.743 221.409 115.708 115.687 107.731 44.0001 43.0725 40.36 39.4123 31.3923 107.758 37.9425 32.6049 32.2539 29.3596 26.4629 24.7109 30.3575 24.7002 40.4935 23.5521 146.393 67.6538 17.4125 17.2329 12.9576 12.917 43.1437
threshold=4.620046665062767 1.0000000180025095e-35 4.0342014792848504 1.2424533248940002 4.2696729980286863 1.0000000180025095e-35 5.5274410133216048 3.7012257604091228 5.2230512493957644 5.4004200416950168 5.7349567871884704 2.6020033435383989 1.0000000180025095e-35 1.2424533248940002 5.4445775410940529 3.3842466058243148 3.3842466058243148 3.6505739029280164 1.0000000180025095e-35 1.0000000180025095e-35 3.1567740231385479 1.0000000180025095e-35 3.349750170080839 1.0000000180025095e-35 2.6020033435383989 5.0005792898547883 5.3867833963027953 1.0000000180025095e-35 2.7403194616709956 1.0000000180025095e-35
decision_type=2 2 2 2 2 2 2 2 2 2 2 2 2 2 2 2 2 2 2 2 2 2 2 2 2 2 2 2 2 2
left_child=1 11 3 8 -4 22 7 -6 -3 -8 -9 12 -1 -13 -15 -14 -11 28 -12 25 21 27 23 26 -25 -20 -2 -7 29 -10
right_child=5 2 4 -5 6 20 9 10 17 16 18 13 15 14 -16 -17 -18 -19 19 -21 -22 -23 -24 24 -26 -27 -28 -29 -30 -31
leaf_value=-1.3973889148922376 -1.4480018698049764 -1.3495737396830561 -1.4272337769299928 -0.89535607350249546 -1.2818737880355313 -1.131096374824724 -1.4650970672930104 -1.349727063653035 -1.1908414959937172 -1.4419460328640976 -1.2281937890612813 -1.4477155449951189 -1.2533290161671891 -1.2252596132197313 -1.4186257449626218 -0.98311380613006261 -1.2633771941032612 -1.0085352332586506 -0.93289864143161716 -1.2336190027507166 -1.3734225862861613 -0.96624464923917852 -1.4490647408279804 -0.90779105908239432 -1.3314815112255278 -1.0940296775808434 -1.4019794803217596 -1.3043431685392357 -1.3622382996033258 -0.8701296855585603
leaf_count=686 1073 68 265 317 248 33 122 59 234 71 134 901 61 97 120 49 280 80 49 88 99 32 2226 49 44 261 938 136 20 29
internal_value=0 0.67034 1.54243 3.06892 0.818391 -0.61373 1.12032 1.65395 1.91168 0.173782 2.02188 -0.38902 -0.0125846 -0.657036 0.273986 2.26628 0.600909 2.25103 2.23517 2.54533 0.875704 1.37516 -0.716924 -0.528778 2.51342 2.91028 -0.669466 0.890749 1.89499 2.04111
internal_count=8869 4239 2325 748 1577 4630 1312 839 431 473 591 1914 796 1118 217 110 351 363 532 398 300 201 4330 2104 93 310 2011 169 283 263
shrinkage=1


Tree=1
num_leaves=31
num_cat=0
split_feature=49 43 50 50 45 49 48 19 50 25 50 17 55 50 50 50 17 50 50 50 17 50 52 34 49 50 17 49 52 49
split_gain=474.046 459.041 247.934 115.406 96.0105 81.8 55.6518 46.8094 30.7445 30.3565 27.0295 77.5991 33.1589 26.8161 24.5048 31.8595 22.8275 22.5202 27.2173 21.6438 108.954 36.2325 20.3731 19.3636 18.6323 17.4903 22.801 15.8555 15.2356 14.9109
threshold=4.620046665062767 1.0000000180025095e-35 3.9607678160667752 3.5408542930527882 1.0000000180025095e-35 3.6762205501217915 5.5392989060884821 1.0000000180025095e-35 5.708768641061873 1.0000000180025095e-35 2.6020033435383989 1.0000000180025095e-35 1.2424533248940002 5.7153802534577975 4.2413008733233104 5.4785512376367516 1.0000000180025095e-35 4.0517471391904847 4.3107766033702406 3.349750170080839 1.0000000180025095e-35 2.6020033435383989 2.2499048351651334 1.0000000180025095e-35 2.7403194616709956 3.1567740231385479 1.0000000180025095e-35 5.3867833963027953 5.2122109552252045 4.1026092131977068
decision_type=2 2 2 2 2 2 2 2 2 2 2 2 2 2 2 2 2 2 2 2 2 2 2 2 2 2 2 2 2 2
left_child=1 10 3 9 19 14 -7 17 23 -3 11 -1 -12 -14 -4 -16 29 -8 -19 20 27 -22 -18 -9 -13 26 -6 -2 -25 -11
right_child=4 2 5 -5 25 6 7 8 -10 16 12 24 13 -15 15 -17 22 18 -20 -21 21 -23 -24 28 -26 -27 -28 -29 -30 -31
leaf_value=-0.034840354082054555 -0.084191095165732907 -0.12777641670795267 -0.098662666645492628 0.32710410559147973 0.075807197985553618 -0.072744681484440382 0.25605212643958875 0.20471355789421999 0.019171380699815846 0.15137255260103125 -0.083902777044867094 0.045070773232350869 0.088069275167638475 -0.092730645786485155 0.080462047291540217 -0.05950040201545486 0.34157614087709504 -0.058003138672226007 0.088291851431392343 -0.085262293714666315 0.31799274232115654 0.024859801080639333 0.064861236202962511 0.15830012742735594 0.24737914263727992 -0.012558752468942289 0.28454682858965619 -0.039185904791651155 -0.034434764315155991 0.00030648710567738913
leaf_count=686 1073 23 138 340 169 98 27 429 75 235 901 40 136 81 232 176 51 126 207 2226 49 44 20 66 70 99 32 938 37 45
internal_value=0 0.57093 1.25889 2.36189 -0.576125 0.713124 1.0902 1.25454 1.64315 1.43081 -0.361168 -0.0145217 -0.617672 0.239741 -0.074207 0.226792 1.5972 0.549538 0.365086 -0.676459 -0.494198 1.94836 2.71852 1.83546 1.78326 0.743076 1.1358 -0.628833 0.894881 1.27639
internal_count=8869 4239 2325 714 4630 1611 1065 967 607 374 1914 796 1118 217 546 408 351 360 333 4330 2104 93 71 532 110 300 201 2011 103 280
shrinkage=0.1


Tree=2
num_leaves=31
num_cat=0
split_feature=49 43 50 45 50 49 48 19 50 17 55 25 50 50 50 50 52 49 50 50 50 34 17 50 49 52 50 17 52 50
split_gain=385.251 346.349 167.98 80.4931 72.6565 60.4821 41.52 31.7631 23.3046 58.5245 28.9826 22.7595 21.6021 21.3643 20.9494 25.2116 20.7372 16.2611 15.7325 15.5155 21.2709 15.5122 15.5006 13.799 13.6042 13.1184 12.2734 12.02 10.8714 11.1722
threshold=4.620046665062767 1.0000000180025095e-35 3.9607678160667752 1.0000000180025095e-35 3.5408542930527882 3.6762205501217915 5.5392989060884821 1.0000000180025095e-35 2.6020033435383989 1.0000000180025095e-35 1.2424533248940002 1.0000000180025095e-35 5.7153802534577975 5.0005792898547883 4.2413008733233104 5.4785512376367516 5.2337752898422689 5.3254430739639957 5.708768641061873 4.0517471391904847 4.3107766033702406 1.0000000180025095e-35 1.0000000180025095e-35 2.6020033435383989 3.7012257604091228 3.1567740231385479 4.4367340276668159 1.0000000180025095e-35 4.6774800307930642 5.4743671128014926
decision_type=2 2 2 2 2 2 2 2 2 2 2 2 2 2 2 2 2 2 2 2 2 2 2 2 2 2 2 2 2 2
left_child=1 8 4 16 11 14 -7 19 9 -1 -10 -3 -12 -9 -4 -16 17 -2 21 -8 -21 -15 -13 -24 -11 27 -22 -5 -28 -30
right_child=3 2 5 25 -6 6 7 13 10 24 12 22 -14 18 15 -17 -18 -19 -20 20 26 -23 23 -25 -26 -27 28 -29 29 -31
leaf_value=-0.032066158880077855 -0.07351956737811452 -0.12445101983719414 -0.094589917615544195 0.064295389116340348 0.25953372707953748 -0.068646586691645944 0.20534035327868541 0.2472220098073987 -0.079853696419018502 0.081713208281711677 0.075321917958950879 0.10708478604311428 -0.088710509030900636 0.1526062111992717 0.069092457032793819 -0.05566169742034939 -0.096935632139548533 -0.037325146113665469 0.017061164736087434 -0.054224963005883156 0.24925681293561192 0.040085914912172352 0.27356239622288758 0.052622441325339046 0.24187949903890724 -0.018493742285494368 -0.015397073408610826 0.19741909794420565 0.16310599199515369 0.015616366852554393
leaf_count=686 1571 23 138 170 340 98 27 72 901 69 136 280 81 379 232 176 1002 1757 75 126 20 81 51 20 41 88 71 42 67 49
internal_value=0 0.497785 1.06649 -0.540729 1.92489 0.616097 0.925887 1.05711 -0.335192 -0.0149536 -0.580515 1.2001 0.210913 1.35979 -0.0690238 0.200228 -0.638131 -0.541114 1.19857 0.478826 0.32078 1.34567 1.32968 2.20739 1.47284 0.642464 0.755773 0.940916 0.568189 1.01095
internal_count=8869 4239 2325 4630 714 1611 1065 967 1914 796 1118 374 217 607 546 408 4330 3328 535 360 333 460 351 71 110 300 207 212 187 116
shrinkage=0.1


Tree=3
num_leaves=31
num_cat=0
split_feature=49 44 50 53 45 50 48 49 50 17 52 28 50 55 48 38 49 51 50 25 48 50 17 49 55 50 49 48 52 31
split_gain=316.841 275.427 124.731 66.2739 65.485 45.7572 47.9936 28.2451 22.2944 85.4206 25.2529 21.5529 20.4013 16.0315 15.0383 14.379 13.0065 10.5262 9.95671 10.2392 10.5797 9.05872 21.9664 13.1875 12.4841 13.6754 8.46921 8.46798 9.62292 8.38985
threshold=4.6681339642869872 1.0000000180025095e-35 4.0342014792848504 1.2424533248940002 1.0000000180025095e-35 4.2696729980286863 4.620046665062767 3.0677824455408707 3.349750170080839 1.0000000180025095e-35 2.4414009612931857 1.0000000180025095e-35 5.5274410133216048 1.2424533248940002 5.2230512493957644 1.0000000180025095e-35 5.3867833963027953 1.4978661367769959 3.349750170080839 1.0000000180025095e-35 7.7674756369721081 2.9174053685313028 1.0000000180025095e-35 3.3842466058243148 1.2424533248940002 5.4992132179189657 4.448499276371912 5.4743671128014926 5.2012518591713119 1.0000000180025095e-35
decision_type=2 2 2 2 2 2 2 2 2 2 2 2 2 2 2 2 2 2 2 2 2 2 2 2 2 2 2 2 2 2
left_child=1 2 3 14 8 -4 -7 27 9 16 -11 21 -9 17 29 -16 -2 -13 19 -6 -21 22 -3 -24 -23 -26 -14 28 -8 -1
right_child=4 11 5 -5 18 6 7 12 -10 10 -12 13 26 -15 15 -17 -18 -19 -20 20 -22 24 23 -25 25 -27 -28 -29 -30 -31
leaf_value=-0.064272588657926566 -0.075745037133039719 -0.045983989125307455 -0.051571472862071616 0.21830538761236951 0.178717732179694 -0.0868738340112091 0.20220301754616576 0.11089983188017777 -0.080093968217407593 0.2674897233622186 0.019857484645539231 0.028050752242582251 0.058446546740693134 0.18468922790856984 0.12466723411370287 -0.067285042682586255 -0.03324418165612969 -0.1203644982002554 -0.015833126566453391 0.030713519608978015 0.20286323846463411 -0.08477546373398856 0.021530249136616705 0.23610197149490936 0.058057050614790433 -0.079985839347945939 -0.041504383858752485 -0.037113743901421033 0.00091653764167701386 0.077051491536403963
leaf_count=46 1047 555 276 356 41 133 20 717 2179 50 39 187 276 31 398 21 938 41 91 140 22 717 45 20 77 96 60 154 42 54
internal_value=0 0.43373 0.8819 1.52385 -0.515426 0.481262 0.634958 0.758319 -0.608691 -0.418099 1.73014 -0.385286 0.903006 0.290104 0.98439 1.15473 -0.548238 0.0333559 0.545291 0.809795 0.540362 -0.505534 -0.275145 0.949688 -0.680072 -0.0992144 0.415406 -0.0580991 0.693389 0.122997
internal_count=8869 4322 2553 875 4547 1678 1402 1269 4253 2074 89 1769 1053 259 519 419 1985 228 294 203 162 1510 620 65 890 173 336 216 62 100
shrinkage=0.1


Tree=4
num_leaves=31
num_cat=0
split_feature=49 43 50 45 50 49 48 19 50 17 50 52 50 17 55 25 50 38 49 50 34 49 50 50 50 50 38 17 50 49
split_gain=261.274 220.729 101.003 55.3063 49.6946 38.3079 32.7984 26.7831 20.3459 67.9073 19.3022 17.813 17.3969 41.8582 22.0486 15.9131 14.5112 12.1516 11.8775 10.7999 12.3217 10.6884 9.74983 15.9276 9.07699 17.0782 10.7034 8.9706 10.2457 9.75349
threshold=4.6681339642869872 1.0000000180025095e-35 3.9607678160667752 1.0000000180025095e-35 3.4498615536424366 3.3140206880897667 5.0657496176235997 1.0000000180025095e-35 3.349750170080839 1.0000000180025095e-35 5.040188859666439 2.4414009612931857 2.6020033435383989 1.0000000180025095e-35 1.2424533248940002 1.0000000180025095e-35 5.7541574262062731 1.0000000180025095e-35 5.3867833963027953 5.7541574262062731 1.0000000180025095e-35 2.0126758453675748 4.1510089048756029 5.4785512376367516 4.0517471391904847 4.3107766033702406 1.0000000180025095e-35 1.0000000180025095e-35 2.6020033435383989 4.1026092131977068
decision_type=2 2 2 2 2 2 2 2 2 2 2 2 2 2 2 2 2 2 2 2 2 2 2 2 2 2 2 2 2 2
left_child=1 12 4 8 15 22 -7 24 9 18 -9 -11 13 -1 -14 -3 -16 27 -2 20 -12 -15 -4 -24 -8 -26 -27 29 -29 -17
right_child=3 2 5 -5 -6 6 7 10 -10 11 19 -13 14 21 16 17 -18 -19 -20 -21 -22 -23 23 -25 25 26 -28 28 -30 -31
leaf_value=-0.029843892092565744 -0.071943444380872759 -0.12293145178475889 -0.11197534555150145 0.047809678195479009 0.19745065579319257 -0.079796721470349385 0.12878825950025172 0.18898185083509977 -0.076325660263522832 0.22201850537061915 0.10817439199437898 0.017670640974185841 -0.071993400520666842 -0.034412442943085306 0.054054388104541086 0.10347971861050294 -0.088024612772761135 -0.079565678406006299 -0.030592167148987784 -0.007633880390591697 0.017380774216251865 0.14439057788426118 0.035542618870547514 -0.08491500838344293 -0.054940598693639348 0.065067209224165978 -0.092150628305448734 0.21292228322122797 0.030067439006222912 -0.017643154669010407
leaf_count=707 1047 23 76 294 346 106 37 91 2179 50 450 39 927 21 143 223 74 20 938 66 93 92 176 119 164 228 26 52 20 42
internal_value=0 0.386167 0.814347 -0.483272 1.44525 0.469174 0.646303 0.740653 -0.573463 -0.389633 0.995143 1.47193 -0.297124 -0.0256828 -0.517641 0.872777 0.162026 0.968855 -0.512777 0.847482 0.9407 1.1523 -0.252241 -0.0620645 0.274839 0.162591 0.496378 1.06025 1.69593 0.863263
internal_count=8869 4322 2358 4547 726 1632 1261 1155 4253 2074 700 89 1964 820 1144 380 217 357 1985 609 543 113 371 295 455 418 254 337 72 265
shrinkage=0.1


Tree=5
num_leaves=31
num_cat=0
split_feature=49 43 50 45 53 25 50 52 38 28 25 49 49 50 17 48 49 50 50 19 55 50 50 38 49 50 17 49 27 51
split_gain=216.375 176.231 80.8333 46.8692 42.311 31.7862 29.6598 19.9564 19.5922 16.4607 15.3338 15.1905 14.0218 13.6898 29.7815 12.4431 12.166 11.0529 10.5841 9.95903 8.41688 10.6128 7.67738 8.71927 7.55164 7.53337 10.4154 7.26542 7.21744 6.90905
threshold=4.6681339642869872 1.0000000180025095e-35 3.9607678160667752 1.0000000180025095e-35 1.2424533248940002 1.0000000180025095e-35 4.2696729980286863 5.3351284364833438 1.0000000180025095e-35 1.0000000180025095e-35 1.0000000180025095e-35 5.2067464199591091 3.3140206880897667 2.9174053685313028 1.0000000180025095e-35 5.1269313471631675 3.7012257604091228 4.0342014792848504 5.4785512376367516 1.0000000180025095e-35 1.2424533248940002 5.4992132179189657 3.7494348669884654 1.0000000180025095e-35 4.3241107269113215 3.1567740231385479 1.0000000180025095e-35 2.8029010331479993 1.0000000180025095e-35 1.4978661367769959
decision_type=2 2 2 2 2 2 2 2 2 2 2 2 2 2 2 2 2 2 2 2 2 2 2 2 2 2 2 2 2 2
left_child=1 9 4 7 10 -4 17 11 12 13 -3 -2 18 14 27 -14 -16 -7 -8 29 -15 -22 23 -12 -19 26 -5 -1 -13 -11
right_child=3 2 5 25 -6 6 8 -9 -10 19 22 28 15 20 16 -17 -18 24 -20 -21 21 -23 -24 -25 -26 -27 -28 -29 -30 -31
leaf_value=0.019123908097962883 -0.071476347437003929 -0.12418037180877145 -0.095484108386125921 0.041022062765170085 0.18509235076337166 0.083081239456686204 0.048035556154743433 -0.092169476538432937 -0.066655729083906198 0.027852653012692075 0.085633708938203421 -0.026880395539950447 -0.043385086823170826 -0.072685688708138435 0.024364610215500036 0.085124400429980651 0.17143266653899467 -0.070037037535493549 -0.066794681704882508 0.14108696086886985 0.043149451962486388 -0.076596999222064185 0.15493797561663328 -0.074768728335169635 0.056197266217484582 -0.017048728514704257 0.17323312294041085 -0.052519872445268762 -0.077762069307615533 -0.098205825692122495
leaf_count=122 1127 24 104 169 296 34 142 895 68 187 323 2000 58 813 62 876 43 225 85 37 80 102 63 20 40 95 30 477 231 41
internal_value=0 0.347084 0.723337 -0.452454 1.28434 0.416093 0.492611 -0.539741 0.62812 -0.275429 0.834341 -0.446326 0.690217 -0.374538 -0.113806 0.79929 0.905929 -0.270038 0.137395 0.310522 -0.591109 -0.122928 0.914195 0.778486 -0.501913 0.42028 0.648235 -0.379297 -0.320407 0.0898082
internal_count=8869 4322 2358 4547 726 1632 1528 4253 1229 1964 430 3358 1161 1699 704 934 105 299 227 265 995 182 406 343 265 294 199 599 2231 228
shrinkage=0.1


Tree=6
num_leaves=31
num_cat=0
split_feature=49 44 50 50 45 49 48 52 28 49 19 50 52 17 55 50 50 34 50 51 50 50 52 52 52 48 37 51 48 48
split_gain=179.142 143.056 63.7891 44.4757 39.5645 26.5219 23.6441 18.7754 14.8081 13.7661 13.5276 14.2772 10.1239 15.6136 8.01604 7.9738 11.7078 7.92838 10.0723 7.8677 7.63188 11.8125 7.37142 11.865 7.308 11.4666 7.1606 7.14148 6.55084 6.54308
threshold=4.6681339642869872 1.0000000180025095e-35 3.9607678160667752 3.4498615536424366 1.0000000180025095e-35 3.1984648276080736 5.0657496176235997 5.3351284364833438 1.0000000180025095e-35 5.1901713283654827 1.0000000180025095e-35 5.040188859666439 2.9700856263602167 1.0000000180025095e-35 1.2424533248940002 4.2413008733233104 5.4785512376367516 1.0000000180025095e-35 5.7153802534577975 1.4978661367769959 4.1026092131977068 4.3107766033702406 5.6542404955442533 5.5664324555418956 4.1971736807086968 6.9358565909245806 1.0000000180025095e-35 1.0000000180025095e-35 6.1268668004773765 6.4914816847614913
decision_type=2 2 2 2 2 2 2 2 2 2 2 2 2 2 2 2 2 2 2 2 2 2 2 2 2 2 2 2 2 2
left_child=1 2 3 12 7 15 -7 9 27 -2 20 -12 13 -1 19 -4 -17 18 22 -10 -8 24 23 29 25 -22 -18 -3 -23 -13
right_child=4 8 5 -5 -6 6 10 -9 14 -11 11 17 -14 -15 -16 16 26 -19 -20 -21 21 28 -24 -25 -26 -27 -28 -29 -30 -31
leaf_value=0.046582660032132822 -0.06863872177994422 -0.034102765256229274 -0.10133281228262603 0.16085319478478124 0.037352119380744092 -0.072444603688896131 0.10793160168385341 -0.088999941614764447 0.023536818083263314 -0.029861528457208741 0.14555998841238113 0.12790920728710559 -0.077644838054506005 0.13952688175570296 0.12421092090677588 0.027354383932070059 -0.1098054958915113 0.0013546533983007211 -0.0040772444232128786 -0.11561519559063532 -0.11818551477323042 0.12409017326168786 0.18408436029252218 -0.022437308898782739 -0.10191104840745602 0.10339877384193406 0.07040917147524943 -0.085018851449610383 0.023902080819201109 0.068109281598483007
leaf_count=354 1080 1244 91 357 294 120 47 895 187 2278 100 122 26 102 31 166 102 99 87 41 30 39 31 51 91 44 21 266 234 239
internal_value=0 0.312897 0.618053 1.08171 -0.42206 0.344748 0.481703 -0.505591 -0.313221 -0.414938 0.557463 0.730282 0.62949 0.701171 0.238626 -0.266717 -0.0824349 0.605971 0.704973 0.0417852 0.235945 0.129624 0.821586 0.74938 -0.494204 0.148668 -0.790005 -0.422594 0.380149 0.879652
internal_count=8869 4322 2553 839 4547 1714 1334 4253 1769 3358 1214 729 482 456 259 380 289 629 530 228 485 438 443 412 165 74 123 1510 273 361
shrinkage=0.1


Tree=7
num_leaves=31
num_cat=0
split_feature=55 43 50 45 53 19 50 50 50 28 50 17 49 25 25 55 49 48 49 48 50 49 43 19 27 48 48 48 52 48
split_gain=148.919 107.683 53.4756 33.9328 31.3812 22.2513 26.265 20.0229 15.1376 15.0453 12.2412 19.2762 11.7187 10.3213 9.60953 9.27796 9.07428 8.67778 8.63743 8.31609 7.91293 7.64658 9.04069 7.21497 7.02676 7.00991 6.59402 6.52704 6.21591 6.17819
threshold=1.0000000180025095e-35 1.0000000180025095e-35 3.9607678160667752 1.0000000180025095e-35 1.2424533248940002 1.0000000180025095e-35 5.7541574262062731 5.0005792898547883 5.5114085413964817 1.0000000180025095e-35 2.9174053685313028 1.0000000180025095e-35 3.0677824455408707 1.0000000180025095e-35 1.0000000180025095e-35 1.2424533248940002 3.7012257604091228 5.2755571088971331 5.3254430739639957 5.5392989060884821 5.4992132179189657 4.6681339642869872 1.0000000180025095e-35 1.0000000180025095e-35 1.0000000180025095e-35 3.8176519431297078 3.9981586158983733 7.7295155028477671 2.2499048351651334 6.7422906652219785
decision_type=2 2 2 2 2 2 2 2 2 2 2 2 2 2 2 2 2 2 2 2 2 2 2 2 2 2 2 2 2 2
left_child=3 9 4 8 13 12 7 -7 18 10 11 -2 -4 -3 19 -12 -13 -9 21 -5 26 22 -1 -11 -20 -15 -17 -16 -29 -19
right_child=1 2 5 14 -6 6 -8 17 -10 23 15 16 -14 25 27 20 -18 29 24 -21 -22 -23 -24 -25 -26 -27 -28 28 -30 -31
leaf_value=-0.058437845541270787 -0.029657507590541612 -0.12393460428471539 -0.070808027955670913 0.20862099442215576 0.15770351099317681 0.15827925698010437 -0.053956311328782848 -0.017685303124728633 -0.080049474634726878 0.013001305003492626 -0.069916326730584968 0.022487324821129862 0.013378232453593944 -0.050215062707279969 -0.0057344715705379612 0.096078444573602761 0.15426975757800565 0.085590421559588972 -0.017967314133272846 0.0436932403179967 -0.063310910626549574 -0.059828841993000981 0.04440556104820368 0.11879859565128369 -0.075619782256022394 0.080020649842691638 -0.034021711665638221 0.14809214336754734 -0.020144951882041615 0.04269812778601606
leaf_count=136 549 20 148 25 284 89 143 96 911 232 768 62 485 21 191 47 37 280 1534 37 103 1569 84 39 187 369 33 29 20 341
internal_value=0 0.297326 0.591162 -0.376352 1.05936 0.339527 0.540946 0.667603 -0.453539 -0.216227 -0.323289 -0.0628759 -0.0346695 0.677315 0.347352 -0.540102 0.774513 0.540243 -0.374054 1.12124 -0.0470681 -0.517087 -0.0831883 0.324891 -0.238836 0.7363 0.420823 0.135252 0.872775 0.620491
internal_count=8869 4146 2276 4723 694 1582 949 806 4421 1870 1599 648 633 410 302 951 99 717 3510 62 183 1789 220 271 1721 390 80 240 49 621
shrinkage=0.1


Tree=8
num_leaves=31
num_cat=0
split_feature=49 43 50 53 45 25 50 52 38 49 51 25 28 39 55 48 49 49 21 27 49 48 50 17 54 50 49 15 49 50
split_gain=123.439 95.4797 47.3296 32.4899 28.0542 21.6256 23.5183 17.2104 12.6216 11.6764 11.2018 10.056 9.64905 9.03281 9.75812 6.83238 6.18549 6.39479 6.5073 6.04316 5.94357 6.10089 5.69335 21.4274 8.02642 6.96877 6.39519 5.68193 5.54323 7.00154
threshold=4.6681339642869872 1.0000000180025095e-35 4.0342014792848504 1.2424533248940002 1.0000000180025095e-35 1.0000000180025095e-35 4.2696729980286863 5.3351284364833438 1.0000000180025095e-35 5.1901713283654827 1.0000000180025095e-35 1.0000000180025095e-35 1.0000000180025095e-35 1.0000000180025095e-35 1.2424533248940002 3.7726948748059121 4.1026092131977068 3.5694334999727624 1.0000000180025095e-35 1.0000000180025095e-35 4.3241107269113215 7.0609053664551205 2.9174053685313028 1.0000000180025095e-35 1.2424533248940002 5.4992132179189657 2.8029010331479993 1.0000000180025095e-35 3.3842466058243148 5.7413980499943582
decision_type=2 2 2 2 2 2 2 2 2 2 2 2 2 2 2 2 2 2 2 2 2 2 2 2 2 2 2 2 2 2
left_child=1 10 3 11 7 -4 20 9 13 27 12 -3 22 14 28 -13 17 18 -17 -11 -7 -22 23 26 -24 -26 -1 -2 29 -8
right_child=4 2 5 -5 -6 6 8 -9 -10 19 -12 15 -14 -15 -16 16 -18 -19 -20 -21 21 -23 24 -25 25 -27 -28 -29 -30 -31
leaf_value=0.023807684058967042 -0.065026261241592678 -0.12126445457399058 -0.090019044973677256 0.14492786870522184 0.029247033404048679 -0.063583536799240947 0.034780891672177232 -0.083456512572806132 -0.061900933133255003 -0.020060783555307684 -0.073926980397988298 -0.065058217606740368 0.032393618753733734 -0.090170502154952703 -0.054810128771871691 0.03905047592004849 0.01569630723983137 0.12954445696719807 0.11466528098845037 -0.0692663417666564 -0.055597932908285422 0.14908014868077382 -0.073699976325509689 0.083399959525281064 0.017755517928171424 -0.059712014094546087 -0.044683223948906239 0.088117673481840506 0.063331150277536205 -0.11734441057521582
leaf_count=122 1057 24 104 320 294 225 188 895 68 2045 321 20 221 28 56 154 86 86 70 233 20 20 376 94 186 169 475 23 862 27
internal_value=0 0.256837 0.527025 0.947115 -0.365723 0.288071 0.348627 -0.441741 0.452738 -0.354577 -0.222471 0.568648 -0.140918 0.499347 0.525973 0.626559 0.683222 0.813238 0.630302 -0.24701 -0.441303 0.476176 -0.23134 -0.070253 -0.415251 -0.13724 -0.30156 -0.618457 0.564207 0.214617
internal_count=8869 4322 2358 760 4547 1598 1494 4253 1229 3358 1964 440 1643 1161 1133 416 396 310 224 2278 265 40 1422 691 731 355 597 1080 1077 215
shrinkage=0.1


Tree=9
num_leaves=31
num_cat=0
split_feature=55 43 50 53 45 19 50 55 50 51 28 49 49 25 25 50 34 52 48 48 50 53 49 52 49 53 49 49 49 27
split_gain=103.173 70.9781 38.3381 27.2528 24.2309 15.1713 20.0977 15.8071 13.2959 11.201 9.95085 9.04013 7.6123 7.35382 7.1513 6.58117 6.73365 8.21657 14.0617 6.4657 6.21683 6.02488 8.71133 6.91239 5.89388 5.93129 6.44261 5.74992 7.62904 5.74197
threshold=1.0000000180025095e-35 1.0000000180025095e-35 3.9607678160667752 1.2424533248940002 1.0000000180025095e-35 1.0000000180025095e-35 5.0005792898547883 1.2424533248940002 5.5274410133216048 2.9700856263602167 1.0000000180025095e-35 3.0677824455408707 5.3254430739639957 1.0000000180025095e-35 1.0000000180025095e-35 5.9094397911047301 1.0000000180025095e-35 5.1328485759866682 6.5154528834577485 8.1313831109660732 2.7403194616709956 1.4978661367769959 4.3107766033702406 2.2499048351651334 4.6681339642869872 1.2424533248940002 4.5900436644025815 4.4367340276668159 3.1984648276080736 1.0000000180025095e-35
decision_type=2 2 2 2 2 2 2 2 2 2 2 2 2 2 2 2 2 2 2 2 2 2 2 2 2 2 2 2 2 2
left_child=4 9 3 14 8 11 -7 15 12 10 -2 -4 24 20 -3 16 19 18 -18 -8 -6 22 23 -13 25 -1 -27 28 -12 -14
right_child=1 2 5 -5 13 6 7 -9 -10 -11 27 21 29 -15 -16 -17 17 -19 -20 -21 -22 -23 -24 -25 -26 26 -28 -29 -30 -31
leaf_value=-0.042143330800120053 -0.02023746308166487 -0.11926453768285383 -0.065604451985954701 0.1400424064423931 0.13999663366561535 0.13552367107864446 0.058290562396797044 -0.087626736709738418 -0.074856342085771368 -0.073775263835198876 0.074182958925409867 0.066557476247595546 -0.014234350819716605 0.0090742460860883042 0.058745429152348372 -0.068224195078924493 0.16692392896175592 -0.052335616884117836 -0.056005659576129185 -0.037227161769295795 -0.0086254788493002471 0.06735726409011282 0.04712170671933303 -0.044778799038519612 -0.053817577871259119 -0.05051896807819059 0.093964609009779515 0.13142366703725897 -0.02128809836477066 -0.06879425652492363
leaf_count=153 1335 20 148 284 39 89 571 91 880 304 84 37 1542 240 390 39 27 72 25 35 23 83 127 238 1586 24 48 34 113 188
internal_value=0 0.245933 0.482412 0.886885 -0.325746 0.272397 0.436007 0.323834 -0.395712 -0.182618 -0.101601 -0.0397396 -0.322539 0.276807 0.542844 0.399658 0.436888 -0.0283796 0.610369 0.528514 0.937774 0.103835 -0.0237857 -0.283744 -0.46209 -0.0822934 0.431482 0.352754 0.201171 -0.194646
internal_count=8869 4146 2276 694 4723 1582 949 860 4421 1870 1566 633 3541 302 410 769 730 124 52 606 62 485 402 275 1811 225 72 231 197 1730
shrinkage=0.1


Tree=10
num_leaves=31
num_cat=0
split_feature=49 44 50 53 45 25 50 50 51 50 48 28 37 27 49 55 49 47 49 52 17 49 50 50 49 43 49 50 50 34
split_gain=85.7473 58.713 31.1893 28.3839 19.9974 14.5173 14.0753 13.4747 9.0228 7.76722 7.6991 7.50815 6.89763 6.78192 6.80681 6.48134 6.22172 5.70817 5.7027 5.17949 8.08416 5.08023 5.36935 9.04858 7.69016 5.03076 4.83956 4.83629 8.59659 4.70194
threshold=4.6001450180613412 1.0000000180025095e-35 4.0342014792848504 1.2424533248940002 1.0000000180025095e-35 1.0000000180025095e-35 5.5114085413964817 4.2696729980286863 1.0000000180025095e-35 5.5274410133216048 5.4004200416950168 1.0000000180025095e-35 1.0000000180025095e-35 1.0000000180025095e-35 5.3254430739639957 1.0000000180025095e-35 4.3241107269113215 1.0000000180025095e-35 3.0201273556387078 2.7403194616709956 1.0000000180025095e-35 3.1984648276080736 5.6542404955442533 5.6886674053319402 4.2972622671762801 1.0000000180025095e-35 3.0201273556387078 4.3630783395783075 4.6681339642869872 1.0000000180025095e-35
decision_type=2 2 2 2 2 2 2 2 2 2 2 2 2 2 2 2 2 2 2 2 2 2 2 2 2 2 2 2 2 2
left_child=1 2 3 12 6 -4 13 16 11 25 -11 -3 -1 14 15 -2 -7 -16 -14 20 -6 -12 -23 -24 -25 -9 -5 -27 -29 -30
right_child=4 8 5 26 19 7 -8 9 -10 10 21 -13 18 -15 17 -17 -18 -19 -20 -21 -22 22 23 24 -26 27 -28 28 29 -31
leaf_value=0.030782929639040824 -0.043852227600036424 -0.022635995228579887 -0.078490408068291495 0.020535100323784673 0.020527504151594475 -0.055246358193780903 -0.072941242029725392 -0.04753208728469762 -0.071743023263157624 -0.081490446785162138 -0.060137081351066927 0.027874070913350146 0.025239133741878222 -0.06931160117470371 -0.0099765211162317451 0.055560138997701104 0.058000981608677039 -0.11887778302228319 0.14197261267334615 -0.023578607185848411 0.12798464721276837 -0.0046245830557272282 0.1778859117677023 0.072434142262139553 -0.044607428046457981 0.13919360179794091 0.12969994393490172 -0.026008061655621601 0.061811347647633991 0.019679428552240755
leaf_count=417 1516 1174 106 20 170 230 938 44 300 77 63 209 28 363 1532 38 39 37 51 98 37 114 22 86 45 26 326 73 532 158
internal_value=0 0.223274 0.41861 0.747961 -0.302676 0.220851 -0.368834 0.269093 -0.209072 0.34634 0.0675404 -0.127035 0.421473 -0.29051 -0.249369 -0.398134 -0.341867 -0.126199 0.987251 0.237659 0.416939 0.189274 0.291294 0.576452 0.327583 0.456256 1.23186 0.485961 0.455661 0.526116
internal_count=8869 4140 2457 842 4729 1615 4424 1509 1683 1240 407 1383 496 3486 3123 1554 269 1569 79 305 207 330 267 153 131 833 346 789 763 690
shrinkage=0.1


Tree=11
num_leaves=31
num_cat=0
split_feature=49 44 50 50 50 17 48 49 50 48 19 52 45 52 17 49 48 52 50 54 48 38 34 54 50 19 21 43 50 50
split_gain=71.1343 53.8443 28.6037 31.0859 23.3307 67.6746 12.7769 10.4261 10.2359 9.44441 9.55984 12.5992 8.0641 7.93419 11.1597 7.34367 6.79193 6.77324 6.40428 9.61869 5.86468 5.74145 5.73902 5.7043 17.2219 12.7176 5.42182 5.29502 5.20109 5.79594
threshold=4.6681339642869872 1.0000000180025095e-35 3.9607678160667752 3.4498615536424366 3.349750170080839 1.0000000180025095e-35 4.620046665062767 3.0677824455408707 2.6020033435383989 3.8815106545092584 1.0000000180025095e-35 5.2548844000372066 1.0000000180025095e-35 2.9700856263602167 1.0000000180025095e-35 5.3867833963027953 5.4574533147509321 5.1328485759866682 2.2975599250672958 0.89587973461402759 3.0677824455408707 1.0000000180025095e-35 1.0000000180025095e-35 1.2424533248940002 5.1561734468561538 1.0000000180025095e-35 1.0000000180025095e-35 1.0000000180025095e-35 4.945201156493737 5.2806591939842544
decision_type=2 2 2 2 2 2 2 2 2 2 2 2 2 2 2 2 2 2 2 2 2 2 2 2 2 2 2 2 2 2
left_child=1 2 3 13 5 12 -4 16 -7 10 18 -12 15 14 21 -2 17 -8 19 -3 -21 -1 -20 28 25 -25 -5 -16 -6 -30
right_child=4 9 6 26 23 8 7 -9 -10 -11 11 -13 -14 -15 27 -17 -18 -19 22 20 -22 -23 -24 24 -26 -27 -28 -29 29 -31
leaf_value=0.029439560478824914 -0.051773419047150521 -0.014969593521263275 -0.070036266165699274 0.023821553119137948 -0.090149029406235356 0.18777368343468748 0.14854774038246965 0.031832830214129963 0.05369232475381619 -0.039750020436455147 0.17566983515486767 -0.0065042594629726742 0.018612096723128007 -0.087938423364825546 0.049439162872353094 -0.015908179114065613 -0.045822152232257295 -0.012362767931028241 -0.070262585701437383 0.013281666450198099 0.14935149385739657 -0.08877537304204848 0.061060029632310192 -0.017059637712438517 -0.05973881080670667 0.12163261406743293 0.12797176754413558 0.14668506007666654 0.052214095739085788 -0.0769352971521471
leaf_count=330 1047 308 139 26 533 72 20 1283 51 1058 34 56 169 26 45 938 228 44 212 33 34 24 34 216 1301 78 331 57 56 86
internal_value=0 0.193491 0.377515 0.701477 -0.292839 -0.10551 0.198736 0.24339 1.43881 -0.214934 0.017542 0.74111 -0.255957 0.348067 0.410844 -0.324684 -0.215498 0.441957 -0.117437 0.0778415 0.841993 0.225983 -0.514991 -0.53309 -0.425657 0.218814 1.20232 1.02712 -0.766876 -0.226555
internal_count=8869 4322 2553 839 4547 2277 1714 1575 123 1769 711 90 2154 482 456 1985 292 64 621 375 67 354 246 2270 1595 294 357 102 675 142
shrinkage=0.1


Tree=12
num_leaves=31
num_cat=0
split_feature=55 43 50 53 50 17 19 50 50 45 52 51 54 50 48 52 49 49 17 28 49 35 48 55 48 37 49 53 49 48
split_gain=59.4333 39.6492 24.3323 22.7238 15.3694 54.8 12.2697 16.052 10.5567 9.71126 9.42835 8.25747 7.03407 15.8803 10.4615 9.84741 9.73403 11.1115 6.86285 6.63895 6.34013 6.26657 6.10528 5.91832 5.59236 7.37376 5.41662 5.33668 7.70449 5.17036
threshold=1.0000000180025095e-35 1.0000000180025095e-35 4.0342014792848504 1.2424533248940002 3.349750170080839 1.0000000180025095e-35 1.0000000180025095e-35 5.0005792898547883 5.9012653434919304 1.0000000180025095e-35 2.4414009612931857 2.9700856263602167 1.2424533248940002 5.1676349844808334 8.1533495923759691 3.3140206880897667 5.4617086595848869 5.5471267646873921 1.0000000180025095e-35 1.0000000180025095e-35 5.3867833963027953 1.0000000180025095e-35 3.7726948748059121 1.2424533248940002 5.4402485097224957 1.0000000180025095e-35 4.1026092131977068 1.4978661367769959 4.3107766033702406 6.592359133075548
decision_type=2 2 2 2 2 2 2 2 2 2 2 2 2 2 2 2 2 2 2 2 2 2 2 2 2 2 2 2 2 2
left_child=4 11 3 22 5 9 27 -8 24 20 -7 19 18 14 15 -14 21 -18 -6 -2 -1 -17 -3 -13 25 -9 -24 28 -4 -26
right_child=1 2 6 -5 12 10 7 8 -10 -11 -12 23 13 -15 -16 16 17 -19 -20 -21 -22 -23 26 -25 29 -27 -28 -29 -30 -31
leaf_value=-0.049206930337343857 -0.016161568086261357 -0.073979759176103249 -0.043028500352939571 0.11796048873019489 -0.02351689735760075 0.16215493546290169 0.11618587087433987 -0.043193250605087878 -0.083464906667511857 0.02387136788789181 0.036086279798350017 -0.085165508172672669 -0.10040870202211914 -0.051343501997973363 -0.057105715411530769 0.012405609563156655 0.34550743776974674 0.047928616450999481 -0.090506330017388614 0.028963460147377135 -0.016192650067318636 0.14316470895691888 0.055449977072564695 0.044630290493420093 0.06303001687412256 0.092184692046962821 -0.0092262801285256952 0.037367997397592952 0.02711548456857792 0.022916404053930205
leaf_count=1128 1335 25 374 308 211 80 89 124 81 169 51 270 29 1314 102 122 21 21 515 231 925 35 319 34 213 27 76 106 119 415
internal_value=0 0.185459 0.362862 0.686476 -0.260479 -0.108804 0.192756 0.335319 0.236118 -0.246904 1.23012 -0.142772 -0.450713 -0.334752 0.21126 0.544465 0.770404 2.0119 -0.70742 -0.0755927 -0.321339 0.451185 0.383893 -0.657283 0.292522 -0.149784 0.441461 -0.104303 -0.223138 0.368667
internal_count=8869 4146 2276 728 4723 2353 1548 949 860 2222 131 1870 2370 1644 330 228 199 42 726 1566 2053 157 420 304 779 151 395 599 493 628
shrinkage=0.1


Tree=13
num_leaves=31
num_cat=0
split_feature=49 44 50 50 50 17 25 49 50 19 55 29 52 50 50 48 49 52 17 48 49 48 22 37 49 50 51 49 50 52
split_gain=49.6874 37.1949 21.6355 26.8106 17.9739 44.8171 10.059 7.97975 7.97692 8.32841 7.88238 13.8037 7.70049 7.49729 7.40015 7.08822 6.74783 6.51582 9.82954 6.38559 5.59538 6.43043 5.82146 5.5939 6.79752 5.50746 5.4898 5.46979 5.46421 8.35738
threshold=4.6681339642869872 1.0000000180025095e-35 3.9607678160667752 3.4498615536424366 3.349750170080839 1.0000000180025095e-35 1.0000000180025095e-35 3.4811217321331038 4.6681339642869872 1.0000000180025095e-35 1.2424533248940002 1.0000000180025095e-35 5.2548844000372066 2.6020033435383989 5.5274410133216048 7.5398245747231796 4.3241107269113215 2.9700856263602167 1.0000000180025095e-35 6.8611875059645095 5.3867833963027953 5.9571310312473083 1.0000000180025095e-35 1.0000000180025095e-35 3.1984648276080736 4.3630783395783075 2.524928003624769 3.6762205501217915 3.6505739029280164 5.3057863027301417
decision_type=2 2 2 2 2 2 2 2 2 2 2 2 2 2 2 2 2 2 2 2 2 2 2 2 2 2 2 2 2 2
left_child=1 2 3 17 5 20 -4 10 9 15 11 -3 -12 -7 -10 16 -8 18 -1 -18 22 -22 -2 24 -16 27 -9 -17 -6 -30
right_child=4 7 6 -5 28 13 8 26 14 -11 12 -13 -14 -15 23 25 19 -19 -20 -21 21 -23 -24 -25 -26 -27 -28 -29 29 -31
leaf_value=0.017058985229668821 -0.042811212264113649 -0.039880201321373633 -0.068842400713161903 0.11015314370427215 -0.10588780686228566 0.15327466203079265 -0.070321064056159815 -0.028273504677570168 0.03958400034975533 0.11055517753558558 0.12042052991273662 0.049762907414180595 -0.0081973410784414186 0.040589866522225432 -0.10050894554712937 -0.031934667414124505 -0.052657604029912111 -0.084835927263285191 0.093503678626727926 0.12599013012935542 -0.040399708481166738 0.0063387150516936684 0.060459281995366314 0.050335486884352111 8.8598461285549899e-05 -0.062911957205863123 -0.096459086268978131 0.10040308115126301 -0.025886738881196598 -0.067972230759023505
leaf_count=354 1085 432 111 357 154 72 225 859 757 25 54 211 55 51 78 42 26 26 102 21 320 699 50 93 251 26 158 59 1153 963
internal_value=0 0.160979 0.31434 0.604288 -0.253502 -0.0883346 0.160811 -0.184673 0.198086 -0.121274 0.0268414 -0.111608 0.610053 1.15213 0.280141 -0.230372 -0.483334 0.283837 0.340083 0.330774 -0.216597 -0.0803554 -0.377473 0.0160386 -0.139555 0.259993 -0.359624 0.578529 -0.474665 -0.430203
internal_count=8869 4322 2553 839 4547 2277 1714 1769 1603 424 752 643 109 123 1179 399 272 482 456 47 2154 1019 1135 422 329 127 1017 101 2270 2116
shrinkage=0.1


Tree=14
num_leaves=31
num_cat=0
split_feature=55 43 50 53 52 45 27 27 50 17 55 49 49 49 50 50 49 48 25 27 49 49 39 50 50 51 48 19 17 49
split_gain=41.2476 27.4603 18.1406 21.2218 11.9313 10.4464 9.01388 7.84041 7.38424 12.4223 10.9398 7.02067 6.4858 15.1773 13.0782 6.09064 6.06953 5.84817 5.38822 5.37994 4.80094 5.73298 4.69962 7.2207 4.68663 4.61408 4.45838 4.44504 8.95664 8.6188
threshold=1.0000000180025095e-35 1.0000000180025095e-35 3.9607678160667752 1.2424533248940002 5.3205649864913136 1.0000000180025095e-35 1.0000000180025095e-35 1.0000000180025095e-35 2.6020033435383989 1.0000000180025095e-35 1.2424533248940002 3.1984648276080736 5.4617086595848869 5.5073599362801708 4.945201156493737 4.1971736807086968 2.0126758453675748 7.7295155028477671 1.0000000180025095e-35 1.0000000180025095e-35 4.6681339642869872 4.5900436644025815 1.0000000180025095e-35 5.6886674053319402 5.4617086595848869 2.1383330595080285 7.3041795858689307 1.0000000180025095e-35 1.0000000180025095e-35 5.6149496020273233
decision_type=2 2 2 2 2 2 2 2 2 2 2 2 2 2 2 2 2 2 2 2 2 2 2 2 2 2 2 2 2 2
left_child=4 8 3 18 5 12 11 17 9 26 -10 15 -1 14 -14 -4 -11 -7 -3 -12 21 -6 -22 -24 25 -17 -2 -15 -29 -30
right_child=1 2 6 -5 20 7 -8 -9 10 16 19 -13 13 27 -16 24 -18 -19 -20 -21 22 -23 23 -25 -26 -27 -28 28 29 -31
leaf_value=-0.031647140507241829 -0.0041488631580081673 -0.11981725446845373 -0.10073442957159591 0.11547876020214715 -0.079222254899194766 -0.0044533337077198266 -0.092556995599125613 0.13888967832651813 -0.04859146305841381 -0.042097676676001061 0.03136163811710057 0.026163064918509223 0.038972111107777964 -0.034315140400414723 0.27528701315761883 0.0029473039384295416 0.091812411990146114 0.084087157554891712 0.036262896043131009 -0.093723351524272122 -0.074313767233126493 0.087592629543395653 0.16170343084934713 -0.075747395648244981 -0.055588554702526854 0.11051971976794006 -0.082486760158786143 -0.01634114833659292 -0.007209012690680203 0.23420590769093461
leaf_count=2365 597 20 77 284 27 195 65 26 885 21 186 1176 205 661 25 134 88 44 390 33 833 34 28 42 106 24 60 182 26 30
internal_value=0 0.154022 0.302948 0.602091 -0.224253 -0.158822 0.163075 0.254186 -0.122356 0.06212 -0.293698 0.191102 -0.217732 -0.042925 0.599881 -0.154534 0.694567 0.125268 0.324117 0.176199 -0.583522 0.133519 -0.669146 0.240102 -0.00820968 0.197196 -0.112478 -0.217001 0.113134 1.2107
internal_count=8869 4146 2276 694 4723 3759 1582 265 1870 766 1104 1517 3494 1129 230 341 109 239 410 219 964 61 903 70 264 158 657 899 238 56
shrinkage=0.1


Tree=15
num_leaves=31
num_cat=0
split_feature=49 43 25 52 52 50 17 51 52 50 55 55 52 45 52 53 55 27 49 48 52 49 19 49 49 47 49 49 25 49
split_gain=34.4904 22.8831 15.6675 15.1138 14.3076 11.7997 7.63224 7.65616 7.59429 6.84201 10.3281 8.68191 6.63513 6.60131 6.59415 10.2734 5.79925 5.79106 5.08843 5.07153 5.25144 9.36934 5.01584 4.99711 6.25016 4.70536 5.22974 5.13039 4.54943 4.99336
threshold=4.6001450180613412 1.0000000180025095e-35 1.0000000180025095e-35 3.9219243190762367 3.7494348669884654 5.5114085413964817 1.0000000180025095e-35 4.8789996228937627 4.6774800307930642 1.700598690831078 0.89587973461402759 1.2424533248940002 5.7541574262062731 1.0000000180025095e-35 2.2499048351651334 1.2424533248940002 1.2424533248940002 1.0000000180025095e-35 4.4716224665663962 7.2916559771584302 4.1971736807086968 4.0859410030639109 1.0000000180025095e-35 4.1026092131977068 3.5694334999727624 1.0000000180025095e-35 5.2067464199591091 4.8081027000528378 1.0000000180025095e-35 5.1789666414329583
decision_type=2 2 2 2 2 2 2 2 2 2 2 2 2 2 2 2 2 2 2 2 2 2 2 2 2 2 2 2 2 2
left_child=1 9 -3 4 6 13 23 14 19 10 18 -11 -13 17 -8 -16 -10 25 -1 22 21 -21 -5 24 -4 26 27 -2 -15 -30
right_child=5 2 3 8 -6 -7 7 -9 16 11 -12 12 -14 28 15 -17 -18 -19 -20 20 -22 -23 -24 -25 -26 -27 -28 -29 29 -31
leaf_value=-0.017630655505945989 -0.0039067070702006801 -0.078805028742258851 0.0078969767309024965 -0.065235805334840122 0.11028230390461718 -0.05697636658056987 0.1306462498123768 0.02558910063130225 0.028188859774241688 -0.044795201499797176 0.067647267793198074 0.032050225010204984 -0.09207442660273886 0.073567960365881604 -0.077989971770711597 0.10293136784812751 -0.061406763350860087 -0.059581673816709493 0.059200950185092673 -0.021001346335545741 -0.022089711269088499 0.16690537395254484 0.040902761552002259 -0.052244871508537051 0.078778970855452615 -0.11476440907122827 -0.0050206422737192613 -0.048967862176444957 -0.04386422399816825 0.027810114785543839
leaf_count=563 373 123 200 184 218 972 120 139 838 896 119 164 53 53 22 58 62 363 72 47 95 29 24 43 71 42 1932 776 76 142
internal_value=0 0.140633 0.276122 0.310198 0.537963 -0.207834 0.390519 0.643473 0.151695 -0.114785 0.0685502 -0.27762 0.142307 -0.142357 0.954082 0.424024 0.246601 -0.190687 -0.0890374 -0.172454 0.146899 0.689414 -0.456506 0.169038 0.268532 -0.151727 -0.137612 -0.318907 0.181589 0.0315914
internal_count=8869 4140 2273 2150 871 4729 653 339 1279 1867 754 1113 217 3757 200 80 900 3486 635 379 171 76 208 314 271 3123 3081 1149 271 218
shrinkage=0.1


Tree=16
num_leaves=31
num_cat=0
split_feature=55 43 50 53 50 17 50 27 52 54 50 48 52 38 17 50 28 45 49 49 50 17 49 55 49 37 29 35 52 48
split_gain=28.538 18.3156 13.8572 17.9334 10.0204 36.2838 7.29207 7.30908 7.04898 7.00699 11.4956 8.58532 8.08085 6.94397 6.87691 6.39048 6.15107 5.73881 5.49978 5.77231 5.34419 7.0932 6.68353 4.9859 4.92047 4.88664 5.1515 4.66624 4.9968 4.54275
threshold=1.0000000180025095e-35 1.0000000180025095e-35 4.0342014792848504 1.2424533248940002 3.349750170080839 1.0000000180025095e-35 4.2696729980286863 1.0000000180025095e-35 2.4414009612931857 1.2424533248940002 5.1676349844808334 8.1533495923759691 3.3140206880897667 1.0000000180025095e-35 1.0000000180025095e-35 4.3630783395783075 1.0000000180025095e-35 1.0000000180025095e-35 5.4617086595848869 5.5471267646873921 2.9174053685313028 1.0000000180025095e-35 3.7012257604091228 1.2424533248940002 2.8029010331479993 1.0000000180025095e-35 1.0000000180025095e-35 1.0000000180025095e-35 4.1190041246092024 3.7726948748059121
decision_type=2 2 2 2 2 2 2 2 2 2 2 2 2 2 2 2 2 2 2 2 2 2 2 2 2 2 2 2 2 2
left_child=4 16 3 29 5 17 -4 13 -7 14 11 12 -11 15 -6 -8 20 -1 27 -20 21 24 -23 -22 25 26 -2 28 -14 -3
right_child=1 2 6 -5 9 8 7 -9 -10 10 -12 -13 18 -15 -16 -17 -18 -19 19 -21 23 22 -24 -25 -26 -27 -28 -29 -30 -31
leaf_value=-0.024702192017752176 0.0051278241457149059 -0.072502096242380132 -0.034788936904945812 0.1022709756923804 -0.014037978711628443 0.13757252112034407 0.12965547157946197 -0.086192417888839287 0.028878701374197187 -0.096473628158954564 -0.040466002323364808 -0.05136132383372477 0.13965152343239567 -0.061021220177921588 -0.084752455996565237 0.02148476438331624 0.023862793619027101 0.018357147299510299 0.24640328431790995 0.04355277294393288 -0.049585058818453147 0.0045302094446540977 0.11897477184704151 0.0013506282146270926 -0.031384215706753801 -0.085364811117452546 0.13011282434008647 0.12941834226360255 -0.012182247062038659 0.030744923533218518
leaf_count=2053 60 25 261 308 211 80 25 65 51 29 1314 102 20 68 515 1129 271 169 21 21 768 62 37 183 427 22 40 35 102 395
internal_value=0 0.128311 0.250438 0.510461 -0.190886 -0.0670581 0.12549 0.178961 1.02667 -0.355964 -0.234305 0.229407 0.52494 0.206089 -0.630089 0.239809 -0.101183 -0.185496 0.71887 1.58011 -0.180935 -0.00748831 0.495761 -0.348545 -0.163504 0.311092 0.563983 0.460854 0.166829 0.257564
internal_count=8869 4146 2276 728 4723 2353 1548 1287 131 2370 1644 330 228 1222 726 1154 1870 2222 199 42 1599 648 99 951 549 122 100 157 122 420
shrinkage=0.1


Tree=17
num_leaves=31
num_cat=0
split_feature=49 43 25 50 53 52 49 15 19 50 47 50 17 53 50 55 34 52 52 48 48 52 48 53 25 49 50 34 52 48
split_gain=23.7204 16.8269 12.2434 11.7323 16.7057 9.82892 6.73566 5.48265 5.46919 11.9352 5.25896 4.94028 8.31531 7.23473 8.0129 6.22969 6.31116 4.98462 10.5665 6.47107 4.65175 4.54462 4.45171 14.5399 4.36037 5.56961 4.32699 4.51406 7.26355 7.31069
threshold=4.6101453514146771 1.0000000180025095e-35 1.0000000180025095e-35 3.9219243190762367 1.2424533248940002 5.3205649864913136 5.1789666414329583 1.0000000180025095e-35 1.0000000180025095e-35 4.8402344967050359 1.0000000180025095e-35 1.700598690831078 1.0000000180025095e-35 1.2424533248940002 5.721948439279898 0.89587973461402759 1.0000000180025095e-35 5.6258193099389882 5.4359006562387195 6.8819243873201925 7.2916559771584302 5.7477980882242035 4.6586997221347959 0.89587973461402759 1.0000000180025095e-35 2.9174053685313028 5.9012653434919304 1.0000000180025095e-35 5.3254430739639957 6.9744784734880474
decision_type=2 2 2 2 2 2 2 2 2 2 2 2 2 2 2 2 2 2 2 2 2 2 2 2 2 2 2 2 2 2
left_child=1 11 -3 4 -4 6 7 -2 -5 -10 -8 12 20 21 15 -15 17 18 19 -17 22 -13 -1 -24 -14 -26 27 -11 29 -29
right_child=5 2 3 8 -6 -7 10 -9 9 26 -12 13 24 14 -16 16 -18 -19 -20 -21 -22 -23 23 -25 25 -27 -28 28 -30 -31
leaf_value=-0.0086884841223081911 -0.035219311203517845 -0.074202030410744066 0.028285867178767667 -0.0037240030528267482 0.10877584345348471 -0.052643620582656016 -0.0019465086028679285 0.11830376030636532 0.14266354758967123 0.030029458153947308 -0.11292196201883552 -0.053927704898200569 0.13790713879484356 -0.037077807358432517 -0.060151429005748151 0.12613164328696166 -0.052543541371120786 0.19376889946802756 -0.085910589690636335 -0.00692257162519333 -0.088370335433799019 0.10656046405941447 0.21310378494326951 -0.087247182804457979 -0.042350939872685074 0.083670453484951071 -0.067082645135818172 0.039658760284296934 -0.10020223508117002 -0.10083528968605371
leaf_count=575 1208 125 389 625 274 974 2427 26 36 649 43 607 24 125 193 63 30 22 30 43 54 20 25 21 28 39 48 90 36 20
internal_value=0 0.115111 0.231687 0.261043 0.517443 -0.178882 -0.119019 -0.321058 0.150995 0.250865 -0.0362938 -0.1053 0.0488005 -0.24681 0.00451064 0.231903 0.476375 0.685808 0.525765 0.871655 -0.0839597 -0.490564 -0.0179973 0.775301 0.62634 0.340562 0.197461 0.224869 -0.114679 0.140833
internal_count=8869 4191 2292 2167 663 4678 3704 1234 1504 879 2470 1899 766 1133 506 313 188 158 136 106 675 627 621 46 91 67 843 795 146 110
shrinkage=0.1


Tree=18
num_leaves=31
num_cat=0
split_feature=49 44 50 17 50 50 48 48 50 49 52 19 49 49 50 48 29 55 48 34 49 49 44 48 38 52 17 51 52 36
split_gain=19.7902 15.3954 11.5313 30.1969 10.65 20.6532 6.59748 5.89863 5.87742 5.83297 5.65125 12.5247 6.95811 7.79352 8.77736 6.49589 5.57146 10.1372 6.37569 5.36036 5.26917 5.21204 7.26678 7.2189 5.09762 5.53718 6.81708 4.73969 4.68999 4.55239
threshold=4.6681339642869872 1.0000000180025095e-35 3.349750170080839 1.0000000180025095e-35 3.9607678160667752 3.4498615536424366 4.5591125415341898 7.4045833468266968 3.6505739029280164 3.4811217321331038 5.3057863027301417 1.0000000180025095e-35 5.4617086595848869 5.2548844000372066 5.0657496176235997 6.5345150544735029 1.0000000180025095e-35 1.2424533248940002 7.6950756036740886 1.0000000180025095e-35 3.0677824455408707 5.2230512493957644 1.0000000180025095e-35 7.2775931497885731 1.0000000180025095e-35 2.4414009612931857 1.0000000180025095e-35 2.524928003624769 5.2548844000372066 1.0000000180025095e-35
decision_type=2 2 2 2 2 2 2 2 2 2 2 2 2 2 2 2 2 2 2 2 2 2 2 2 2 2 2 2 2 2
left_child=1 4 3 -2 5 24 -6 -5 -4 16 11 15 13 14 -13 -10 17 -3 29 -7 -8 -17 23 -23 25 26 -1 -11 -19 -18
right_child=2 9 8 7 6 19 20 -9 10 27 -12 12 -14 -15 -16 21 18 28 -20 -21 -22 22 -24 -25 -26 -27 -28 -29 -30 -31
leaf_value=0.013795433340898101 -0.014791731322284932 -0.03287003562580517 -0.10254359144664033 0.12105128135279231 -0.064100360100647222 0.10389857582814679 -0.020986474239920058 -0.0047771808652538085 -0.070052071859803763 -0.02179150843264617 -0.055029839910749528 0.21196412287218458 0.11135488274999905 -0.083010219835922341 0.00088756467411676998 -0.062677726177569434 0.0046973119691600881 0.11661148587261777 0.22357636085798349 -0.0060137612548987283 0.017707142623864976 0.16405033383236992 -0.046200789818932095 0.016289156693880362 -0.090784814555393403 -0.0612391415234977 0.084731273388409384 -0.091462531052205309 -0.0020848463563850352 0.093769941876181956
leaf_count=324 2154 432 154 100 130 326 292 23 399 859 963 23 80 62 85 172 165 40 20 31 1292 39 144 149 24 43 91 158 38 57
internal_value=0 0.101561 -0.170276 -0.0369804 0.201515 0.419686 0.0966046 0.990455 -0.363515 -0.129509 -0.314927 -0.173901 0.434266 0.0355547 0.591679 -0.367342 0.0531763 -0.117849 0.40142 0.934207 0.125071 -0.12596 0.0962336 0.497458 0.154014 0.202193 0.273509 -0.288143 0.648497 0.288609
internal_count=8869 4322 4547 2277 2553 839 1714 123 2270 1769 2116 1153 250 170 108 903 752 510 242 357 1584 504 332 188 482 458 415 1017 78 222
shrinkage=0.1


Tree=19
num_leaves=31
num_cat=0
split_feature=55 27 48 50 50 53 50 48 49 51 39 50 54 50 50 50 48 48 49 52 17 49 52 48 49 49 31 49 48 43
split_gain=16.4314 12.3266 7.72468 9.08653 17.2783 7.78903 7.44518 6.95984 6.79229 7.31337 6.18463 6.18331 5.69111 6.6535 6.65801 9.63334 5.54791 5.90999 5.61237 5.48667 9.94045 5.27767 9.32922 7.74126 6.34973 6.08359 5.06847 6.91879 8.98276 4.75871
threshold=1.0000000180025095e-35 1.0000000180025095e-35 4.4716224665663962 3.9219243190762367 3.6505739029280164 0.89587973461402759 5.7021130240234461 8.5464605712036388 5.3254430739639957 5.5740515676620408 1.0000000180025095e-35 5.4271478232179229 1.2424533248940002 3.9219243190762367 4.791641144189394 4.952293473989716 7.1774005910525496 4.6774800307930642 3.9219243190762367 2.6020033435383989 1.0000000180025095e-35 3.4811217321331038 2.6020033435383989 3.4811217321331038 2.9700856263602167 3.1567740231385479 1.0000000180025095e-35 3.7012257604091228 3.8815106545092584 1.0000000180025095e-35
decision_type=2 2 2 2 2 2 2 2 2 2 2 2 2 2 2 2 2 2 2 2 2 2 2 2 2 2 2 2 2 2
left_child=6 2 21 4 5 16 8 10 11 -10 -5 12 19 -14 -15 -16 17 -4 -19 20 -1 23 26 25 -25 -2 -23 -28 -29 -7
right_child=1 -3 3 7 -6 29 -8 -9 9 -11 -12 -13 13 14 15 -17 -18 18 -20 -21 -22 22 -24 24 -26 -27 27 28 -30 -31
leaf_value=-0.027828012743739767 0.0080548081972839133 -0.049445449007873232 0.0033618376723728535 0.016023293531663475 0.096175838686278436 -0.033940880744884702 -0.057146650791285572 -0.038960653064628627 -0.0013512071194428882 0.17332776756196056 -0.10945121069189989 -0.077228349873390015 0.091127643479719647 -0.086048336089807595 0.18321729016697505 -0.0046669917579172018 -0.0048999949635135263 0.095240114215049576 0.2623941816876102 -0.06730900137882663 0.080600878861609507 -0.039937861603102032 -0.075310142926660398 -0.039892301978442929 0.12963442858196969 -0.085876546485578326 -0.071552886287238535 0.21394534508184587 0.028836626929666705 0.020145563790264151
leaf_count=1044 402 344 22 1612 306 147 564 227 1986 25 30 284 60 79 24 240 35 22 20 362 55 124 249 25 62 64 36 21 101 297
internal_value=0 0.0973028 0.130115 0.192205 0.402154 0.185635 -0.150002 0.0986517 -0.112076 0.00491686 0.143194 -0.247939 -0.188296 0.129566 -0.0694862 0.177488 0.814051 1.20249 1.64552 -0.289151 -0.183111 -0.0767186 -0.29059 0.10097 0.856629 -0.0340822 0.0294702 0.34678 0.65102 0.0650865
internal_count=8869 4146 3802 2718 849 543 4723 1869 4159 2011 1642 2148 1864 403 343 264 99 64 42 1461 1099 1084 531 553 87 466 282 158 122 444
shrinkage=0.1


Tree=20
num_leaves=31
num_cat=0
split_feature=49 38 50 17 43 52 52 52 52 48 48 49 17 37 50 50 50 49 52 44 39 51 52 48 49 54 49 36 49 49
split_gain=13.8137 11.632 9.06604 23.4812 7.81667 8.97378 11.2879 8.77163 7.25623 9.64271 6.78501 6.77367 6.63076 6.4327 6.11926 5.6003 5.36413 5.05263 8.15989 8.43897 5.22844 10.7893 5.29198 7.01695 4.45174 6.23025 4.97044 5.16 4.33356 4.78835
threshold=4.6681339642869872 1.0000000180025095e-35 3.349750170080839 1.0000000180025095e-35 1.0000000180025095e-35 3.9219243190762367 3.7494348669884654 4.6774800307930642 5.0205801788306017 5.6330006924953082 5.7349567871884704 4.0163424379838117 1.0000000180025095e-35 1.0000000180025095e-35 2.9174053685313028 3.6505739029280164 2.6020033435383989 5.0720390087270308 5.6886674053319402 1.0000000180025095e-35 1.0000000180025095e-35 2.9700856263602167 5.3729582179059152 8.6505870401241669 4.1026092131977068 0.89587973461402759 3.5694334999727624 1.0000000180025095e-35 3.4175922930736511 3.9019216517693871
decision_type=2 2 2 2 2 2 2 2 2 2 2 2 2 2 2 2 2 2 2 2 2 2 2 2 2 2 2 2 2 2
left_child=1 4 3 -2 -1 6 12 -7 9 -9 13 -11 24 -10 -14 -4 -5 -17 19 20 22 -22 -19 -24 26 -26 -6 -28 -12 -30
right_child=2 -3 15 16 5 7 -8 8 10 11 28 -13 14 -15 -16 17 -18 18 -20 -21 21 -23 23 -25 25 -27 27 -29 29 -31
leaf_value=-0.0042867777516208769 -0.012661969279543762 -0.041377229153818938 -0.10049736493150026 0.12267303452156463 -0.00081853531149904163 -0.027444601538202818 0.097239722784798893 0.18923738104695423 -0.056932665504854811 -0.060761819185704807 -0.027980959104301886 0.065997436463300793 0.13022414137462393 0.056436367685654902 0.038082360484973432 -0.057963441189414891 0.027553614446934601 0.026816402005022007 -0.082692216860190293 -0.041886921463309607 0.26360789994140355 -0.058051943931074559 -0.060611685468709153 0.1704755356776495 0.018703610071587787 -0.13540336016236804 0.1196518307402529 0.0075233182313979106 0.075745196744719134 0.017966001476558854
leaf_count=1701 2154 383 154 72 202 377 220 25 166 24 102 82 54 37 299 593 51 424 289 501 27 20 238 24 30 26 36 35 71 452
internal_value=0 0.0845258 -0.145408 -0.0275056 0.120115 0.198457 0.383219 0.0809842 0.178625 0.63805 0.0989698 0.375661 0.263999 -0.331032 0.506718 -0.322476 0.881292 -0.275203 -0.172965 -0.0702878 0.160206 1.23278 0.0831067 -0.401695 0.0596032 -0.541759 0.161632 0.633479 0.192346 0.258455
internal_count=8869 4322 4547 2277 3939 2238 902 1336 959 131 828 106 682 203 353 2270 123 2116 1523 1234 733 47 686 262 329 56 273 71 625 523
shrinkage=0.1


Tree=21
num_leaves=31
num_cat=0
split_feature=49 38 50 17 27 53 50 50 50 17 48 52 48 50 52 49 52 44 49 49 47 49 49 48 50 52 50 50 48 49
split_gain=11.4171 9.61837 7.72505 19.3505 6.79657 5.84833 15.1948 9.61009 9.03144 8.51587 6.3304 7.56149 5.924 5.21756 4.87844 4.44953 7.28753 6.98919 4.49398 4.27907 4.21893 4.18907 7.30284 7.10672 8.91124 8.68164 4.92126 4.18311 4.16403 4.13216
threshold=4.6681339642869872 1.0000000180025095e-35 3.349750170080839 1.0000000180025095e-35 1.0000000180025095e-35 1.2424533248940002 3.9219243190762367 2.6020033435383989 3.4498615536424366 1.0000000180025095e-35 3.7726948748059121 5.2548844000372066 4.6774800307930642 3.6505739029280164 2.4414009612931857 5.0720390087270308 5.6886674053319402 1.0000000180025095e-35 5.2122109552252045 4.4942230200312023 1.0000000180025095e-35 5.4531797844617023 5.5073599362801708 8.6880323791252092 5.0657496176235997 4.816232960488728 4.2121001622835381 3.9219243190762367 8.1180579070266656 5.3867833963027953
decision_type=2 2 2 2 2 2 2 2 2 2 2 2 2 2 2 2 2 2 2 2 2 2 2 2 2 2 2 2 2 2
left_child=1 4 3 20 5 7 8 9 -7 28 11 -8 -9 -4 -5 -15 17 21 -18 -6 29 23 -23 24 25 26 -17 -19 -1 -2
right_child=2 -3 13 14 19 6 10 12 -10 -11 -12 -13 -14 15 -16 16 18 27 -20 -21 -22 22 -24 -25 -26 -27 -28 -29 -30 -31
leaf_value=0.0092320434638522506 -0.02470850925182122 -0.038253104850165982 -0.098834556804563226 0.11295387504262114 -0.049514125339124859 0.0066003853095342215 0.16730056333043311 -0.05940705991080604 0.11185654158621593 0.071656923976276835 0.011029449487374535 0.015957437544347818 -0.0043934928803398103 -0.054900739892737464 0.020779277030535687 0.10915912912128085 0.077236741199067357 0.068594055692200048 -0.098921944876489309 0.05762445647812902 -0.11105406454847414 0.13382464240717212 0.014145715367485224 0.1679338715321661 -0.048584785317772265 0.20453769525113877 -0.084420433496532679 -0.048673868164260142 -0.090856963585772332 0.0023362250786503965
leaf_count=745 1124 383 154 75 283 73 27 366 260 111 1602 52 352 593 48 20 28 38 261 44 47 66 225 26 343 22 31 463 24 983
internal_value=0 0.0766834 -0.133708 -0.0249301 0.108858 0.133409 0.215984 0.0107099 0.804408 0.159959 0.14114 0.811615 -0.266596 -0.299951 0.80684 -0.255093 -0.159656 -0.0650985 -0.803275 -0.346187 -0.115024 0.140553 0.434667 -0.0820537 -0.192841 0.694783 -0.0611486 -0.390613 0.0586058 -0.096834
internal_count=8869 4322 4547 2277 3939 3612 2014 1598 333 880 1681 79 718 2270 123 2116 1523 1234 289 327 2154 733 291 442 416 73 51 501 769 2107
shrinkage=0.1


Tree=22
num_leaves=31
num_cat=0
split_feature=50 53 50 19 52 34 52 17 17 50 17 52 48 52 50 49 43 51 52 40 55 43 29 50 43 7 50 52 49 50
split_gain=9.92783 11.2722 14.9828 11.6723 13.5466 11.64 10.3584 16.8643 11.9534 9.59158 9.07817 8.20601 7.52375 7.16637 8.74273 7.14476 6.81973 6.67158 7.08682 6.45451 6.34245 6.24683 5.8158 5.63224 5.59807 5.56633 5.55801 5.5571 5.44305 6.19619
threshold=5.708768641061873 1.2424533248940002 4.0689902272260703 1.0000000180025095e-35 5.0205801788306017 1.0000000180025095e-35 3.0677824455408707 1.0000000180025095e-35 1.0000000180025095e-35 2.6020033435383989 1.0000000180025095e-35 4.945201156493737 5.8536372009884516 5.6472105679022224 5.5740515676620408 3.3842466058243148 1.0000000180025095e-35 1.2424533248940002 3.9415346756528771 1.0000000180025095e-35 0.89587973461402759 1.0000000180025095e-35 1.0000000180025095e-35 5.3254430739639957 1.0000000180025095e-35 1.0000000180025095e-35 3.8606743063089741 2.7403194616709956 5.4617086595848869 4.863673427408628
decision_type=2 2 2 2 2 2 2 2 2 2 2 2 2 2 2 2 2 2 2 2 2 2 2 2 2 2 2 2 2 2
left_child=1 6 10 25 12 13 7 19 11 15 21 17 -5 14 -6 -9 22 18 26 -1 -15 -3 -12 -7 27 -4 -8 -11 29 -14
right_child=-2 2 3 4 5 23 8 9 -10 24 16 -13 28 20 -16 -17 -18 -19 -20 -21 -22 -23 -24 -25 -26 -27 -28 -29 -30 -31
leaf_value=-0.10040122908585479 -0.032887173816639859 0.060840924899152354 -0.025092805637779231 0.12963218639029686 0.020433523072569858 -0.018497453840417233 -0.0056191399530123283 0.012472024802561993 -0.056432289815475017 -0.066843432308806211 0.051569212737661324 0.086507658710308091 0.10469187109610777 0.0034647955983763282 -0.057885764353723147 0.10856346781946294 0.097225782034969691 -0.14245440143836641 -0.045944372382150288 -0.0055242805962101025 0.14311872178478008 -0.11298565031803216 -0.091543679271518685 -0.10668890184732976 0.10942418541244155 0.060405702869860703 0.1299798200724766 0.080541499734857011 0.15461934162175553 0.012759253790025338
leaf_count=77 1067 26 936 65 644 106 56 51 918 132 78 99 51 62 126 127 347 44 150 3144 43 42 21 84 21 81 34 28 29 180
internal_value=0 0.0224303 0.147868 0.066539 0.196016 0.0534288 -0.0692898 0.000123586 -0.332972 0.515559 0.593057 0.105133 0.603998 0.177174 0.103543 0.805002 0.739792 -0.159814 0.0147421 -0.0729086 0.869245 -0.374838 0.211257 -0.491686 -0.0804552 -0.19111 0.577545 -0.342663 0.423802 0.322461
internal_count=8869 7802 2921 2407 1390 1065 4881 3580 1301 359 514 383 325 875 770 178 446 284 240 3221 105 68 99 190 181 1017 90 160 260 231
shrinkage=0.1


Tree=23
num_leaves=31
num_cat=0
split_feature=27 45 55 48 50 50 53 39 48 50 48 49 15 49 52 48 48 48 44 39 17 49 53 38 50 48 44 50 50 43
split_gain=8.90514 11.2913 8.4047 4.47409 5.23828 12.3404 6.84253 5.72857 4.39796 5.98683 4.09792 4.09604 7.32305 6.83648 6.75138 4.6669 5.86283 5.56195 12.8669 6.66904 10.3357 5.76066 4.81466 4.56079 5.5177 5.73195 4.39656 4.21218 5.44919 4.08634
threshold=1.0000000180025095e-35 1.0000000180025095e-35 1.0000000180025095e-35 4.4716224665663962 3.9219243190762367 3.6505739029280164 0.89587973461402759 1.0000000180025095e-35 8.5464605712036388 6.5854815236201958 7.3559604897625013 5.3254430739639957 1.0000000180025095e-35 4.9163179057820896 5.6886674053319402 5.4004200416950168 5.9571310312473083 6.5617373797951473 1.0000000180025095e-35 1.0000000180025095e-35 1.0000000180025095e-35 5.596566669300107 1.2424533248940002 1.0000000180025095e-35 5.5032948732385458 8.3879948385919629 1.0000000180025095e-35 4.6491756246494491 5.2443855436100657 1.0000000180025095e-35
decision_type=2 2 2 2 2 2 2 2 2 2 2 2 2 2 2 2 2 2 2 2 2 2 2 2 2 2 2 2 2 2
left_child=2 -2 11 -4 5 6 10 8 -6 -10 -5 12 -1 -14 15 -13 26 22 19 21 -21 23 -18 27 25 -25 -17 -19 -29 -8
right_child=1 -3 3 4 7 -7 29 -9 9 -11 -12 14 13 -15 -16 16 17 18 -20 20 -22 -23 -24 24 -26 -27 -28 28 -30 -31
leaf_value=-0.023683276721070793 -0.048046341836002572 0.086243520364888998 -0.0064756794566783729 0.099579187397599314 0.012509872756769456 0.084739934236053763 -0.036039820789044476 -0.09451767691415075 -0.04952880217112185 0.11134567901564299 -0.015786095878579348 0.072780712369506298 0.21966262429438715 -0.021762035920834599 -0.092279360443547426 -0.074660335625355914 0.041082977063094439 -0.034684743582756486 -0.047035082638157998 0.0069778057687690277 0.27818311544476004 0.06324925259312722 0.20887482984186476 0.037394097000602672 -0.11144343439898495 0.20010140724705613 -0.010547121144617037 0.12181913784630577 -0.00946496548741072 0.014822207680894565
leaf_count=2114 829 38 1084 70 1612 306 147 48 181 28 29 84 26 32 166 129 179 244 354 26 22 161 21 75 24 25 356 32 130 297
internal_value=0 -0.348717 0.0185537 0.095023 0.142938 0.309586 0.136899 0.0730215 0.090786 -0.320978 0.718256 -0.0930483 -0.204103 1.02833 -0.000939768 0.0325191 0.000741012 0.102625 0.0165346 0.229373 1.27567 0.155598 0.536863 0.00592514 0.507924 0.751212 -0.284148 -0.141978 0.291346 0.0198768
internal_count=8869 867 8002 3802 2718 849 543 1869 1821 209 99 4200 2172 58 2028 1862 1778 1293 1093 739 48 691 200 530 124 100 485 406 162 444
shrinkage=0.1


Tree=24
num_leaves=31
num_cat=0
split_feature=50 53 50 50 52 17 17 50 19 52 34 51 48 48 49 52 50 54 40 48 49 31 55 50 45 43 52 48 5 35
split_gain=7.65777 8.17838 12.6818 10.4595 9.10562 14.3347 9.44563 7.9545 7.16751 10.0968 9.53676 6.79315 6.39777 6.36817 6.18908 5.7597 7.11849 5.63974 5.5164 5.42188 5.30319 5.12379 5.05966 5.00688 4.62612 4.33115 4.7106 4.17426 4.04749 4.03123
threshold=5.708768641061873 1.2424533248940002 3.9219243190762367 3.3842466058243148 3.0677824455408707 1.0000000180025095e-35 1.0000000180025095e-35 2.6020033435383989 1.0000000180025095e-35 5.0205801788306017 1.0000000180025095e-35 1.2424533248940002 6.2195951448957336 8.3634589214769743 3.3842466058243148 5.6472105679022224 5.5740515676620408 1.2424533248940002 1.0000000180025095e-35 7.7090839672165226 2.3502401828962087 1.0000000180025095e-35 1.0000000180025095e-35 5.3254430739639957 1.0000000180025095e-35 1.0000000180025095e-35 2.7403194616709956 8.1313831109660732 1.0000000180025095e-35 1.0000000180025095e-35
decision_type=2 2 2 2 2 2 2 2 2 2 2 2 2 2 2 2 2 2 2 2 2 2 2 2 2 2 2 2 2 2
left_child=1 4 3 21 5 18 11 14 24 12 15 13 -10 20 -7 16 27 -8 -1 22 -6 -3 -17 -12 -4 26 -9 -11 -20 -18
right_child=-2 2 8 -5 6 7 17 25 9 10 23 -13 -14 -15 -16 19 29 -19 28 -21 -22 -23 -24 -25 -26 -27 -28 -29 -30 -31
leaf_value=-0.097235051482294207 -0.029448564176851894 -0.076525169560117734 -0.016497532606348071 0.10512922150251978 0.11362897835615193 0.012421822557240688 -0.063000128314223691 -0.062554889734279834 0.098139562409341186 0.022955482117752307 -0.017410778211844953 -0.12120143618994635 0.029102995028673528 0.17648697420982906 0.10235819412102032 -0.1068480057973028 -0.027269972664232329 0.021309885268520276 -0.0037124670470476055 0.18400430024928388 -0.0053904359501717944 0.0369262202825901 0.073769115260099813 -0.1022640801934557 0.09093782580216403 0.094691739658891494 0.072344752150903635 -0.051845510966823105 -0.11693220967380319 -0.1488197985410101
leaf_count=77 1067 31 1055 283 35 51 831 132 99 588 106 48 230 25 127 36 98 87 3114 22 275 128 47 84 30 21 28 56 30 28
internal_value=0 0.0193838 0.12668 0.604328 -0.0596748 0.00509178 -0.312943 0.486951 0.0617671 0.165665 0.0413813 0.079492 0.513632 0.21178 0.754053 0.152155 0.0858115 -0.52586 -0.0622036 0.768529 0.098092 0.126124 0.398839 -0.459078 -0.129816 -0.0627932 -0.304948 0.175458 -0.0465781 -0.538637
internal_count=8869 7802 2921 442 4881 3580 1301 359 2479 1394 1065 383 329 335 178 875 770 918 3221 105 310 159 83 190 1085 181 160 644 3144 126
shrinkage=0.1


Tree=25
num_leaves=31
num_cat=0
split_feature=27 45 49 52 52 35 50 19 48 50 49 49 48 48 52 22 19 31 48 48 38 48 48 48 49 50 53 37 52 48
split_gain=6.99565 8.96591 6.17804 5.32517 4.40132 6.65681 8.24934 4.70899 4.69264 7.49893 4.33735 5.58134 4.56871 4.2161 4.03179 4.62497 3.98271 3.94159 3.70443 4.43776 4.26664 3.76517 3.60383 6.93205 6.51095 8.06407 6.73564 7.16712 6.28087 5.62482
threshold=1.0000000180025095e-35 1.0000000180025095e-35 4.4942230200312023 5.2755571088971331 4.7749040587885991 1.0000000180025095e-35 5.0336952619030324 1.0000000180025095e-35 7.480146218619617 5.040188859666439 5.3867833963027953 5.3958951239350581 6.7099137248553644 7.1507002272949736 4.2972622671762801 1.0000000180025095e-35 1.0000000180025095e-35 1.0000000180025095e-35 8.4971940245052995 8.9173776948681347 1.0000000180025095e-35 8.6737693193294145 4.620046665062767 4.8559213341406453 3.5694334999727624 4.1026092131977068 1.2424533248940002 1.0000000180025095e-35 2.4414009612931857 6.471572899141754
decision_type=2 2 2 2 2 2 2 2 2 2 2 2 2 2 2 2 2 2 2 2 2 2 2 2 2 2 2 2 2 2
left_child=2 16 22 4 10 7 -7 13 9 -9 14 12 -12 -6 15 -4 -2 -17 -5 20 21 -20 -1 -24 -25 26 27 28 -26 -27
right_child=1 -3 3 18 5 6 -8 8 -10 -11 11 -13 -14 -15 -16 17 -18 -19 19 -21 -22 -23 23 24 25 29 -28 -29 -30 -31
leaf_value=-0.0050551231690574155 -0.030944914283666799 0.075476166259492439 -0.017671822119561264 -0.043628400520459895 0.012612487051109926 0.20971163251012281 0.031529274300056212 0.11045734126994472 0.13867437058904808 -0.047868846770404483 0.18999032044192848 0.0016874374257379626 0.0043866721783455609 -0.10246192470946019 -0.077213345481455031 -0.027408822224632874 -0.094186419979082919 0.12008077952376815 0.036352318026588379 -0.10680867159973842 -0.058612094867522328 0.21318941574501737 0.14488316588441091 -0.0052957162868173613 0.022292549395390906 0.041359477133587563 0.087433183327614114 0.12092980797885843 -0.10381600758053788 0.0018434125732166369
leaf_count=1134 641 38 1604 807 67 31 49 25 28 66 22 1313 22 63 142 31 188 43 44 37 35 34 26 887 121 226 295 32 31 787
internal_value=0 -0.316892 0.0160536 -0.0726383 -0.0266792 0.283088 0.92684 0.0297281 0.381929 0.0994474 -0.0650394 0.0509687 1.0556 -0.426787 -0.178481 -0.137724 -0.44085 0.622921 -0.3395 0.260516 0.637497 1.1427 0.0877935 0.136322 0.123032 0.217073 0.528508 0.218281 -0.00024486 0.116084
internal_count=8869 867 8002 4463 3506 329 80 249 119 91 3177 1357 44 130 1820 1678 829 74 957 150 113 78 3539 2405 2379 1492 479 184 152 1013
shrinkage=0.1


Tree=26
num_leaves=31
num_cat=0
split_feature=27 45 40 55 19 49 15 52 48 49 49 35 52 52 50 49 49 28 55 35 44 19 54 49 53 50 52 49 50 22
split_gain=5.86734 7.41095 5.7069 4.87227 3.74746 3.29997 7.34431 6.03226 4.53945 6.03569 6.68811 4.48291 3.49554 3.29148 17.4444 3.13111 7.66811 3.9337 3.11177 3.11055 2.81124 9.89559 3.59056 2.6928 2.56863 9.00309 6.72078 6.93039 8.12839 6.31548
threshold=1.0000000180025095e-35 1.0000000180025095e-35 1.0000000180025095e-35 1.0000000180025095e-35 1.0000000180025095e-35 5.1789666414329583 1.0000000180025095e-35 5.6886674053319402 5.6716020950760067 4.6681339642869872 4.5900436644025815 1.0000000180025095e-35 3.9019216517693871 4.952293473989716 5.1445790166580574 5.0720390087270308 5.1029059508623904 1.0000000180025095e-35 1.4978661367769959 1.0000000180025095e-35 1.0000000180025095e-35 1.0000000180025095e-35 0.89587973461402759 5.7153802534577975 1.2424533248940002 3.9219243190762367 2.2499048351651334 3.4811217321331038 5.4617086595848869 1.0000000180025095e-35
decision_type=2 2 2 2 2 2 2 2 2 2 2 2 2 2 2 2 2 2 2 2 2 2 2 2 2 2 2 2 2 2
left_child=2 4 -1 5 13 6 8 23 15 10 -10 12 -12 -2 -15 17 -17 19 24 -4 22 -22 -11 -7 26 -26 -5 28 -28 -29
right_child=1 -3 3 18 -6 7 -8 -9 9 20 11 -13 -14 14 -16 16 -18 -19 -20 -21 21 -23 -24 -25 25 -27 27 29 -30 -31
leaf_value=-0.090360838551267031 -0.040585078882044177 0.067153597086180683 -0.0061010820468930882 0.011305057069382543 -0.092030819254435736 0.0041665197624048298 0.11369848358389356 -0.081887425539097405 -0.078758598170149227 0.035695037432525265 -0.077974706508010361 0.14058040089196974 0.060258368020614878 0.32528383963860291 -0.044388438188629878 0.18790615290727866 -0.015449735019845404 0.094900073609175725 -0.080814857198550902 -0.077496353722779729 -0.063263385607232311 0.19002525746441556 -0.075345552609104846 -0.058316952127347478 0.065842351698130908 0.008942524025697408 -0.0055532506244275678 -0.067807333563983579 0.2096382254490167 0.12214753619531407
leaf_count=76 509 38 356 1028 188 2342 45 214 38 32 23 22 33 20 112 37 65 35 37 107 111 26 582 70 331 1760 286 301 21 24
internal_value=0 -0.295112 0.0142637 0.0206955 -0.412246 -0.0660817 -0.202595 -0.00353966 -0.247742 -0.406956 0.10269 0.531874 0.0975436 -0.285897 0.301028 -0.00504911 0.558043 -0.12453 0.0791842 -0.219971 -0.573897 -0.056561 -0.675589 0.0243717 0.0852996 0.140954 0.0042614 -0.262159 0.0663919 -0.575904
internal_count=8869 867 8002 7926 829 4138 1512 2626 1467 867 116 78 56 641 132 600 102 498 3788 463 751 137 614 2412 3751 2091 1660 632 307 325
shrinkage=0.1


Tree=27
num_leaves=31
num_cat=0
split_feature=50 53 50 50 52 17 17 52 50 49 54 51 52 50 19 52 34 48 49 48 48 35 52 50 50 40 45 48 52 29
split_gain=5.44237 6.89878 7.37655 9.32209 6.48649 11.8309 7.66912 7.99716 6.24908 5.4738 5.24097 5.17329 5.49816 4.83572 4.82632 7.78927 7.21417 5.71112 4.88003 5.01744 5.61518 4.46245 7.93213 6.90804 4.4115 4.38354 4.20851 4.10954 3.93831 5.13896
threshold=5.5274410133216048 1.2424533248940002 3.9219243190762367 3.3842466058243148 3.0677824455408707 1.0000000180025095e-35 1.0000000180025095e-35 4.945201156493737 2.6020033435383989 3.7012257604091228 1.2424533248940002 1.2424533248940002 3.9415346756528771 3.8606743063089741 1.0000000180025095e-35 5.0005792898547883 1.0000000180025095e-35 6.1862065070100369 2.8617925509761908 5.2755571088971331 6.9998784638915952 1.0000000180025095e-35 4.3372693810700076 4.1026092131977068 5.3254430739639957 1.0000000180025095e-35 1.0000000180025095e-35 5.4909995847486188 4.3502571242716384 1.0000000180025095e-35
decision_type=2 2 2 2 2 2 2 2 2 2 2 2 2 2 2 2 2 2 2 2 2 2 2 2 2 2 2 2 2 2
left_child=1 4 3 -3 5 25 7 11 9 -7 -8 12 13 -6 18 17 -17 -16 -4 -20 28 23 -23 -22 -18 -1 -11 -14 -21 -30
right_child=-2 2 14 -5 6 8 10 -9 -10 26 -12 -13 27 -15 15 16 24 -19 19 20 21 22 -24 -25 -26 -27 -28 -29 29 -31
leaf_value=-0.092787152507481208 -0.018082863529501312 0.0072495187498743457 -0.10364605988891039 0.097956928641430074 -0.0090584734233081481 0.01719122930059044 -0.057190343593233342 0.093538914972416731 -0.0039348765289179055 0.12375267375785169 0.025942185933660336 -0.14526898825729936 0.051359256293852101 0.12257196110217661 0.10127543331908806 0.017808784572951552 -0.015835259331484105 0.028551438709724059 0.1200657807236451 -0.081711236385392363 0.1055186482224566 -0.0098349823994282881 0.14057315167815021 -0.016217336906447052 -0.10435672454189893 -0.0039277860062452829 0.023309422108086519 -0.07447543696689142 -0.04015660931514347 0.095201998670083665
leaf_count=77 1711 159 46 283 56 59 823 73 181 87 78 41 39 34 78 571 114 184 22 118 34 61 45 447 57 3139 32 111 87 22
internal_value=0 0.0248722 0.137395 0.512449 -0.045089 0.00876363 -0.267991 0.099967 0.453475 0.694573 -0.46621 -0.16007 -0.0175119 0.502313 0.078855 0.178642 0.0509073 0.514286 -0.0875742 -0.0403618 -0.0793237 0.0765555 0.577827 -0.0504502 -0.380127 -0.0523634 0.991123 -0.435814 -0.437367 -0.097517
internal_count=8869 7158 2328 442 4830 3575 1255 354 359 178 901 281 240 90 1886 1004 742 262 882 836 814 587 106 481 171 3216 119 150 227 109
shrinkage=0.1


Tree=28
num_leaves=31
num_cat=0
split_feature=50 50 49 50 53 50 50 52 17 48 43 51 55 49 27 44 48 52 54 55 49 22 50 17 49 49 50 49 48 40
split_gain=4.6519 6.07028 9.20176 5.66514 5.6218 6.23609 8.27032 5.6526 11.9704 8.23201 6.02449 7.81779 5.4281 4.49746 7.57178 4.22515 4.17491 5.01549 4.12478 5.47705 5.44541 4.65348 5.74608 4.79529 4.5586 4.82074 4.79946 4.03735 4.68708 3.93688
threshold=5.708768641061873 5.6542404955442533 5.5154408213148463 5.5274410133216048 1.2424533248940002 3.9219243190762367 3.3842466058243148 2.2499048351651334 1.0000000180025095e-35 8.3102920080851046 1.0000000180025095e-35 1.0000000180025095e-35 1.0000000180025095e-35 3.7726948748059121 1.0000000180025095e-35 1.0000000180025095e-35 3.7726948748059121 5.2548844000372066 1.2424533248940002 1.0000000180025095e-35 5.3958951239350581 1.0000000180025095e-35 4.516324041782946 1.0000000180025095e-35 4.3241107269113215 5.5073599362801708 3.9019216517693871 5.173316863805991 5.1387309967764621 1.0000000180025095e-35
decision_type=2 2 2 2 2 2 2 2 2 2 2 2 2 2 2 2 2 2 2 2 2 2 2 2 2 2 2 2 2 2
left_child=1 3 12 4 7 6 -6 8 29 13 11 27 -3 14 -9 -11 17 -7 21 20 -20 23 -23 24 -15 26 -26 28 -10 -1
right_child=-2 2 -4 -5 5 16 -8 9 10 15 -12 -13 -14 18 -16 -17 -18 -19 19 -21 -22 22 -24 -25 25 -27 -28 -29 -30 -31
leaf_value=-0.090497681101092187 -0.023696425699243306 -0.061415042162225292 0.30146114768817678 -0.032007226820504629 0.0065185096482937872 0.13009176070400283 0.093095602571427169 -0.012711185235570974 0.069995215563433896 0.16516910849548178 0.13451519676767851 -0.046759946374460321 0.07023940057360939 -0.12885596598109036 0.16878570623075459 -0.015081211098437665 0.0046479779943767877 -0.0026858070248047829 0.21468025756359663 -0.083503404063402897 -0.014524673676396717 0.17014840020817368 -0.06179854364931902 -0.073526428950747735 -0.077172905939894107 -0.11211941091533753 0.072814205865677009 0.13374117723796228 -0.043214872844234982 -0.0030534519413061827
leaf_count=77 1067 76 21 469 159 26 283 331 63 23 50 112 78 25 32 30 1832 28 25 21 22 21 37 642 34 30 94 34 25 3102
internal_value=0 0.0146947 0.58495 0.00335383 0.0223862 0.12423 0.473761 -0.0411225 0.0131855 -0.235548 0.52567 0.346802 0.378028 -0.294499 -0.000973043 0.959133 0.0707863 0.663962 -0.432054 0.316965 1.02631 -0.50466 0.50573 -0.57127 -0.120492 0.105048 0.376112 0.631341 0.402633 -0.0426327
internal_count=8869 7802 175 7627 7158 2328 442 4830 3463 1367 284 234 154 1314 363 53 1886 54 951 68 47 883 58 825 183 158 128 122 88 3179
shrinkage=0.1


Tree=29
num_leaves=31
num_cat=0
split_feature=27 45 40 19 55 49 15 52 48 49 49 52 49 50 50 52 36 48 48 19 52 48 50 36 48 49 8 53 49 49
split_gain=4.61628 5.80137 4.0792 3.55215 3.52031 2.84029 5.98369 5.10123 3.97967 4.89882 6.31153 3.88716 3.23924 3.1655 5.63702 4.47472 2.87799 3.62144 5.79509 2.7548 2.69613 8.82174 3.64641 2.69611 5.55153 4.23588 2.7726 2.68985 2.65402 8.34354
threshold=1.0000000180025095e-35 1.0000000180025095e-35 1.0000000180025095e-35 1.0000000180025095e-35 1.0000000180025095e-35 5.1789666414329583 1.0000000180025095e-35 5.6612213479477846 5.6716020950760067 4.6586997221347959 4.5900436644025815 5.2443855436100657 4.6101453514146771 5.2806591939842544 5.0005792898547883 5.0845003501084243 1.0000000180025095e-35 7.5999018339581088 8.1533495923759691 1.0000000180025095e-35 5.6112999507865169 5.0005792898547883 3.349750170080839 1.0000000180025095e-35 3.7726948748059121 5.4909995847486188 1.0000000180025095e-35 0.89587973461402759 2.6735537653587351 2.7403194616709956
decision_type=2 2 2 2 2 2 2 2 2 2 2 2 2 2 2 2 2 2 2 2 2 2 2 2 2 2 2 2 2 2
left_child=2 3 -1 23 5 6 8 -7 20 10 -10 12 -12 14 16 -16 -11 19 -19 -18 22 -22 27 26 -25 -26 -2 -4 -6 -30
right_child=1 -3 4 -5 28 7 -8 -9 9 13 11 -13 -14 -15 15 -17 17 18 -20 -21 21 -23 -24 24 25 -27 -28 -29 29 -31
leaf_value=-0.083381703990074496 -0.047521875996304579 0.058320787849022719 -0.0046176978510079026 -0.08970522561992228 -0.0096419498551163878 0.0027991425053944252 0.098813502016195029 -0.072542399612640834 -0.0754918140404085 -0.067073219760331676 0.077230790322477372 0.14337135042430088 -0.06213030899119059 -0.09783865539758152 0.20614717631395749 -0.01708735504417323 0.035835582893918846 0.20408806651770772 -0.061731455673938868 -0.10998085874921909 -0.10664893389668276 0.23898842098899947 -0.047937164255957669 0.14316289004486479 -0.055615355541002137 0.094736083425800297 0.091479480390207035 0.064656899395620734 0.098578057265559127 0.0076844125681316822
leaf_count=76 435 38 244 188 552 2386 45 240 38 351 23 21 23 249 20 27 25 22 22 46 24 33 236 23 120 38 25 63 68 3168
internal_value=0 -0.267764 0.0125686 -0.37664 0.0176448 -0.0568475 -0.185897 0.00116625 -0.229216 -0.382616 0.10742 0.573976 0.12983 -0.529829 -0.394688 0.787521 -0.513508 -0.0115188 0.81372 -0.516101 -0.000582341 0.912836 -0.0653661 -0.253684 0.131159 -0.198408 -0.409701 0.141655 0.0677172 0.0963663
internal_count=8869 867 8002 829 7926 4138 1512 2626 1467 867 105 67 46 762 513 47 466 115 44 71 600 57 543 641 181 158 460 307 3788 3236
shrinkage=0.1


end of trees

feature importances:
51=200
50=153
49=98
53=89
18=52
56=35
54=28
20=26
44=24
46=22
26=20
52=18
28=17
35=14
39=13
45=13
55=11
29=10
36=7
38=7
40=6
41=6
16=5
30=5
23=4
32=4
37=4
48=4
22=2
6=1
8=1
9=1

parameters:
[boosting: gbdt]
[objective: binary]
[metric: auc]
[tree_learner: serial]
[device_type: cpu]
[data: ]
[valid: ]
[num_iterations: 300]
[learning_rate: 0.1]
[num_leaves: 31]
[num_threads: 0]
[max_depth: -1]
[min_data_in_leaf: 20]
[min_sum_hessian_in_leaf: 0.001]
[bagging_fraction: 1]
[bagging_freq: 0]
[bagging_seed: 3]
[feature_fraction: 1]
[feature_fraction_seed: 2]
[early_stopping_round: 0]
[max_delta_step: 0]
[lambda_l1: 0]
[lambda_l2: 0]
[min_gain_to_split: 0]
[drop_rate: 0.1]
[max_drop: 50]
[skip_drop: 0.5]
[xgboost_dart_mode: 0]
[uniform_drop: 0]
[drop_seed: 4]
[top_rate: 0.2]
[other_rate: 0.1]
[min_data_per_group: 100]
[max_cat_threshold: 32]
[cat_l2: 10]
[cat_smooth: 10]
[max_cat_to_onehot: 4]
[top_k: 20]
[monotone_constraints: ]
[feature_contri: ]
[forcedsplits_filename: ]
[refit_decay_rate: 0.9]
[verbosity: 1]
[max_bin: 255]
[min_data_in_bin: 3]
[bin_construct_sample_cnt: 200000]
[histogram_pool_size: -1]
[data_random_seed: 1]
[output_model: LightGBM_model.txt]
[snapshot_freq: -1]
[input_model: ]
[output_result: LightGBM_predict_result.txt]
[initscore_filename: ]
[valid_data_initscores: ]
[pre_partition: 0]
[enable_bundle: 1]
[max_conflict_rate: 0]
[is_enable_sparse: 1]
[sparse_threshold: 0.8]
[use_missing: 1]
[zero_as_missing: 0]
[two_round: 0]
[save_binary: 0]
[enable_load_from_binary_file: 1]
[header: 0]
[label_column: ]
[weight_column: ]
[group_column: ]
[ignore_column: ]
[categorical_feature: ]
[predict_raw_score: 0]
[predict_leaf_index: 0]
[predict_contrib: 0]
[num_iteration_predict: -1]
[pred_early_stop: 0]
[pred_early_stop_freq: 10]
[pred_early_stop_margin: 10]
[convert_model_language: ]
[convert_model: gbdt_prediction.cpp]
[num_class: 1]
[is_unbalance: 0]
[scale_pos_weight: 1]
[sigmoid: 1]
[boost_from_average: 1]
[reg_sqrt: 0]
[alpha: 0.9]
[fair_c: 1]
[poisson_max_delta_step: 0.7]
[tweedie_variance_power: 1.5]
[max_position: 20]
[label_gain: ]
[metric_freq: 1]
[is_provide_training_metric: 0]
[eval_at: ]
[num_machines: 1]
[local_listen_port: 12400]
[time_out: 120]
[machine_list_filename: ]
[machines: ]
[gpu_platform_id: -1]
[gpu_device_id: -1]
[gpu_use_dp: 0]

end of parameters

pandas_categorical:[]
